digraph Tree {
node [shape=box, style="rounded", color="black", fontname=helvetica] ;
edge [fontname=helvetica] ;
0 [label="Fractime-week <= 107.757\nmse = 113153723.258\nsamples = 100.0%\nvalue = 28210.224"] ;
1 [label="Fractime-week <= 104.139\nmse = 124894646.61\nsamples = 64.3%\nvalue = 31688.163"] ;
0 -> 1 [labeldistance=2.5, labelangle=45, headlabel="True"] ;
2 [label="Fractime-week <= 66.73\nmse = 124889860.099\nsamples = 62.1%\nvalue = 31297.143"] ;
1 -> 2 ;
3 [label="Fractime-week <= 30.866\nmse = 139890965.787\nsamples = 39.7%\nvalue = 32489.903"] ;
2 -> 3 ;
4 [label="Fractime-week <= 4.547\nmse = 114549620.666\nsamples = 18.5%\nvalue = 29278.781"] ;
3 -> 4 ;
5 [label="Fractime-week <= 1.34\nmse = 221238.687\nsamples = 2.8%\nvalue = 20778.166"] ;
4 -> 5 ;
6 [label="Fractime-week <= 0.887\nmse = 278985.693\nsamples = 0.9%\nvalue = 20753.785"] ;
5 -> 6 ;
7 [label="Fractime-week <= 0.47\nmse = 349268.628\nsamples = 0.6%\nvalue = 20823.273"] ;
6 -> 7 ;
8 [label="mse = 193143.942\nsamples = 0.3%\nvalue = 20846.435"] ;
7 -> 8 ;
9 [label="Fractime-week <= 0.567\nmse = 504320.292\nsamples = 0.3%\nvalue = 20800.11"] ;
7 -> 9 ;
10 [label="mse = 695318.189\nsamples = 0.1%\nvalue = 20846.435"] ;
9 -> 10 ;
11 [label="mse = 309030.306\nsamples = 0.1%\nvalue = 20753.785"] ;
9 -> 11 ;
12 [label="Fractime-week <= 1.016\nmse = 109448.234\nsamples = 0.3%\nvalue = 20614.808"] ;
6 -> 12 ;
13 [label="mse = 77257.577\nsamples = 0.1%\nvalue = 20661.134"] ;
12 -> 13 ;
14 [label="mse = 137346.803\nsamples = 0.1%\nvalue = 20568.483"] ;
12 -> 14 ;
15 [label="Fractime-week <= 3.844\nmse = 194185.217\nsamples = 1.9%\nvalue = 20789.419"] ;
5 -> 15 ;
16 [label="Fractime-week <= 2.665\nmse = 221128.353\nsamples = 1.5%\nvalue = 20772.315"] ;
15 -> 16 ;
17 [label="Fractime-week <= 1.598\nmse = 208166.248\nsamples = 0.7%\nvalue = 20707.459"] ;
16 -> 17 ;
18 [label="mse = 214604.379\nsamples = 0.1%\nvalue = 20475.832"] ;
17 -> 18 ;
19 [label="Fractime-week <= 2.285\nmse = 189790.748\nsamples = 0.6%\nvalue = 20765.366"] ;
17 -> 19 ;
20 [label="Fractime-week <= 1.751\nmse = 207212.451\nsamples = 0.4%\nvalue = 20769.226"] ;
19 -> 20 ;
21 [label="mse = 214604.379\nsamples = 0.1%\nvalue = 20661.134"] ;
20 -> 21 ;
22 [label="Fractime-week <= 2.215\nmse = 194753.474\nsamples = 0.3%\nvalue = 20823.273"] ;
20 -> 22 ;
23 [label="mse = 214604.379\nsamples = 0.1%\nvalue = 20846.435"] ;
22 -> 23 ;
24 [label="mse = 173829.547\nsamples = 0.1%\nvalue = 20800.11"] ;
22 -> 24 ;
25 [label="mse = 137346.803\nsamples = 0.1%\nvalue = 20753.785"] ;
19 -> 25 ;
26 [label="Fractime-week <= 3.364\nmse = 225677.965\nsamples = 0.7%\nvalue = 20837.17"] ;
16 -> 26 ;
27 [label="Fractime-week <= 3.006\nmse = 207212.451\nsamples = 0.4%\nvalue = 20738.343"] ;
26 -> 27 ;
28 [label="Fractime-week <= 2.807\nmse = 194753.474\nsamples = 0.3%\nvalue = 20684.296"] ;
27 -> 28 ;
29 [label="mse = 173829.547\nsamples = 0.1%\nvalue = 20707.459"] ;
28 -> 29 ;
30 [label="mse = 214604.379\nsamples = 0.1%\nvalue = 20661.134"] ;
28 -> 30 ;
31 [label="mse = 214604.379\nsamples = 0.1%\nvalue = 20846.435"] ;
27 -> 31 ;
32 [label="Fractime-week <= 3.685\nmse = 216750.423\nsamples = 0.3%\nvalue = 20985.412"] ;
26 -> 32 ;
33 [label="mse = 214604.379\nsamples = 0.1%\nvalue = 21031.737"] ;
32 -> 33 ;
34 [label="mse = 214604.379\nsamples = 0.1%\nvalue = 20939.086"] ;
32 -> 34 ;
35 [label="Fractime-week <= 4.318\nmse = 100148.71\nsamples = 0.4%\nvalue = 20846.435"] ;
15 -> 35 ;
36 [label="Fractime-week <= 4.18\nmse = 145930.978\nsamples = 0.3%\nvalue = 20846.435"] ;
35 -> 36 ;
37 [label="mse = 214604.379\nsamples = 0.1%\nvalue = 20846.435"] ;
36 -> 37 ;
38 [label="mse = 77257.577\nsamples = 0.1%\nvalue = 20846.435"] ;
36 -> 38 ;
39 [label="mse = 8584.175\nsamples = 0.1%\nvalue = 20846.435"] ;
35 -> 39 ;
40 [label="Fractime-week <= 25.456\nmse = 119795833.622\nsamples = 15.6%\nvalue = 30816.988"] ;
4 -> 40 ;
41 [label="Fractime-week <= 17.775\nmse = 128482082.529\nsamples = 12.4%\nvalue = 32925.647"] ;
40 -> 41 ;
42 [label="Fractime-week <= 13.463\nmse = 92181937.548\nsamples = 7.9%\nvalue = 39185.18"] ;
41 -> 42 ;
43 [label="Fractime-week <= 11.697\nmse = 104220022.364\nsamples = 5.2%\nvalue = 39633.375"] ;
42 -> 43 ;
44 [label="Fractime-week <= 10.568\nmse = 108134767.131\nsamples = 4.2%\nvalue = 37543.437"] ;
43 -> 44 ;
45 [label="Fractime-week <= 8.44\nmse = 99425836.429\nsamples = 3.6%\nvalue = 35597.219"] ;
44 -> 45 ;
46 [label="Fractime-week <= 6.078\nmse = 38196765.843\nsamples = 2.2%\nvalue = 28922.499"] ;
45 -> 46 ;
47 [label="Fractime-week <= 5.55\nmse = 3508543.155\nsamples = 0.9%\nvalue = 23471.542"] ;
46 -> 47 ;
48 [label="Fractime-week <= 5.442\nmse = 1568758.014\nsamples = 0.6%\nvalue = 22421.499"] ;
47 -> 48 ;
49 [label="Fractime-week <= 4.962\nmse = 642859.341\nsamples = 0.4%\nvalue = 21834.711"] ;
48 -> 49 ;
50 [label="mse = 53651.095\nsamples = 0.1%\nvalue = 21170.713"] ;
49 -> 50 ;
51 [label="Fractime-week <= 5.232\nmse = 606793.883\nsamples = 0.3%\nvalue = 22166.71"] ;
49 -> 51 ;
52 [label="mse = 137346.803\nsamples = 0.1%\nvalue = 21494.991"] ;
51 -> 52 ;
53 [label="mse = 173829.547\nsamples = 0.1%\nvalue = 22838.428"] ;
51 -> 53 ;
54 [label="mse = 214604.379\nsamples = 0.1%\nvalue = 24181.865"] ;
48 -> 54 ;
55 [label="Fractime-week <= 5.928\nmse = 772575.766\nsamples = 0.3%\nvalue = 25571.627"] ;
47 -> 55 ;
56 [label="mse = 420624.584\nsamples = 0.1%\nvalue = 25108.373"] ;
55 -> 56 ;
57 [label="mse = 695318.189\nsamples = 0.1%\nvalue = 26034.882"] ;
55 -> 57 ;
58 [label="Fractime-week <= 8.155\nmse = 28307880.819\nsamples = 1.3%\nvalue = 32556.47"] ;
46 -> 58 ;
59 [label="Fractime-week <= 6.458\nmse = 21662669.042\nsamples = 1.2%\nvalue = 31495.489"] ;
58 -> 59 ;
60 [label="mse = 946405.313\nsamples = 0.1%\nvalue = 25617.953"] ;
59 -> 60 ;
61 [label="Fractime-week <= 7.42\nmse = 18982063.941\nsamples = 1.0%\nvalue = 32335.138"] ;
59 -> 61 ;
62 [label="Fractime-week <= 6.786\nmse = 9861071.236\nsamples = 0.6%\nvalue = 29416.637"] ;
61 -> 62 ;
63 [label="Fractime-week <= 6.743\nmse = 3940136.407\nsamples = 0.3%\nvalue = 26776.088"] ;
62 -> 63 ;
64 [label="mse = 1236121.226\nsamples = 0.1%\nvalue = 25201.024"] ;
63 -> 64 ;
65 [label="mse = 1682498.335\nsamples = 0.1%\nvalue = 28351.152"] ;
63 -> 65 ;
66 [label="Fractime-week <= 7.158\nmse = 1837013.488\nsamples = 0.3%\nvalue = 32057.185"] ;
62 -> 66 ;
67 [label="mse = 2197548.846\nsamples = 0.1%\nvalue = 31501.28"] ;
66 -> 67 ;
68 [label="mse = 858417.518\nsamples = 0.1%\nvalue = 32613.09"] ;
66 -> 68 ;
69 [label="Fractime-week <= 7.921\nmse = 4644038.772\nsamples = 0.4%\nvalue = 36226.472"] ;
61 -> 69 ;
70 [label="Fractime-week <= 7.627\nmse = 1843451.62\nsamples = 0.3%\nvalue = 34975.686"] ;
69 -> 70 ;
71 [label="mse = 137346.803\nsamples = 0.1%\nvalue = 33724.9"] ;
70 -> 71 ;
72 [label="mse = 420624.584\nsamples = 0.1%\nvalue = 36226.472"] ;
70 -> 72 ;
73 [label="mse = 858417.518\nsamples = 0.1%\nvalue = 38728.044"] ;
69 -> 73 ;
74 [label="mse = 420624.584\nsamples = 0.1%\nvalue = 41044.315"] ;
58 -> 74 ;
75 [label="Fractime-week <= 9.142\nmse = 3465913.717\nsamples = 1.3%\nvalue = 46721.752"] ;
45 -> 75 ;
76 [label="Fractime-week <= 8.707\nmse = 1705389.469\nsamples = 0.4%\nvalue = 44842.999"] ;
75 -> 76 ;
77 [label="mse = 137346.803\nsamples = 0.1%\nvalue = 43360.586"] ;
76 -> 77 ;
78 [label="Fractime-week <= 8.969\nmse = 841249.168\nsamples = 0.3%\nvalue = 45584.205"] ;
76 -> 78 ;
79 [label="mse = 34336.701\nsamples = 0.1%\nvalue = 44842.999"] ;
78 -> 79 ;
80 [label="mse = 549387.211\nsamples = 0.1%\nvalue = 46325.412"] ;
78 -> 80 ;
81 [label="Fractime-week <= 9.788\nmse = 1698891.725\nsamples = 0.9%\nvalue = 47661.128"] ;
75 -> 81 ;
82 [label="Fractime-week <= 9.317\nmse = 1211560.947\nsamples = 0.4%\nvalue = 46865.875"] ;
81 -> 82 ;
83 [label="mse = 1038685.197\nsamples = 0.1%\nvalue = 46510.714"] ;
82 -> 83 ;
84 [label="Fractime-week <= 9.59\nmse = 1203394.058\nsamples = 0.3%\nvalue = 47043.456"] ;
82 -> 84 ;
85 [label="mse = 1682498.335\nsamples = 0.1%\nvalue = 46696.015"] ;
84 -> 85 ;
86 [label="mse = 482859.854\nsamples = 0.1%\nvalue = 47390.896"] ;
84 -> 86 ;
87 [label="Fractime-week <= 10.416\nmse = 921368.136\nsamples = 0.4%\nvalue = 48456.381"] ;
81 -> 87 ;
88 [label="Fractime-week <= 10.085\nmse = 313322.394\nsamples = 0.3%\nvalue = 48271.079"] ;
87 -> 88 ;
89 [label="mse = 8584.175\nsamples = 0.1%\nvalue = 48085.778"] ;
88 -> 89 ;
90 [label="mse = 549387.211\nsamples = 0.1%\nvalue = 48456.381"] ;
88 -> 90 ;
91 [label="mse = 1931439.415\nsamples = 0.1%\nvalue = 48826.984"] ;
87 -> 91 ;
92 [label="Fractime-week <= 10.824\nmse = 1302112.072\nsamples = 0.6%\nvalue = 49220.75"] ;
44 -> 92 ;
93 [label="mse = 2062348.087\nsamples = 0.1%\nvalue = 48873.31"] ;
92 -> 93 ;
94 [label="Fractime-week <= 11.251\nmse = 995048.973\nsamples = 0.4%\nvalue = 49336.564"] ;
92 -> 94 ;
95 [label="Fractime-week <= 11.137\nmse = 1323572.51\nsamples = 0.3%\nvalue = 49128.099"] ;
94 -> 95 ;
96 [label="mse = 2197548.846\nsamples = 0.1%\nvalue = 48919.635"] ;
95 -> 96 ;
97 [label="mse = 362681.401\nsamples = 0.1%\nvalue = 49336.564"] ;
95 -> 97 ;
98 [label="mse = 77257.577\nsamples = 0.1%\nvalue = 49753.492"] ;
94 -> 98 ;
99 [label="Fractime-week <= 13.205\nmse = 1204237.146\nsamples = 1.0%\nvalue = 47993.127"] ;
43 -> 99 ;
100 [label="Fractime-week <= 12.642\nmse = 1130905.467\nsamples = 0.9%\nvalue = 47908.197"] ;
99 -> 100 ;
101 [label="Fractime-week <= 12.145\nmse = 1349861.547\nsamples = 0.6%\nvalue = 47993.127"] ;
100 -> 101 ;
102 [label="Fractime-week <= 11.898\nmse = 186169.299\nsamples = 0.3%\nvalue = 48989.123"] ;
101 -> 102 ;
103 [label="mse = 105156.146\nsamples = 0.1%\nvalue = 49243.913"] ;
102 -> 103 ;
104 [label="mse = 137346.803\nsamples = 0.1%\nvalue = 48734.333"] ;
102 -> 104 ;
105 [label="Fractime-week <= 12.376\nmse = 529536.306\nsamples = 0.3%\nvalue = 46997.13"] ;
101 -> 105 ;
106 [label="mse = 173829.547\nsamples = 0.1%\nvalue = 47576.198"] ;
105 -> 106 ;
107 [label="mse = 214604.379\nsamples = 0.1%\nvalue = 46418.063"] ;
105 -> 107 ;
108 [label="Fractime-week <= 12.856\nmse = 649714.759\nsamples = 0.3%\nvalue = 47738.337"] ;
100 -> 108 ;
109 [label="mse = 362681.401\nsamples = 0.1%\nvalue = 47298.246"] ;
108 -> 109 ;
110 [label="mse = 549387.211\nsamples = 0.1%\nvalue = 48178.428"] ;
108 -> 110 ;
111 [label="mse = 1341277.372\nsamples = 0.1%\nvalue = 48502.706"] ;
99 -> 111 ;
112 [label="Fractime-week <= 15.826\nmse = 67624456.288\nsamples = 2.7%\nvalue = 38313.689"] ;
42 -> 112 ;
113 [label="Fractime-week <= 15.655\nmse = 12355439.399\nsamples = 1.5%\nvalue = 44717.92"] ;
112 -> 113 ;
114 [label="Fractime-week <= 14.325\nmse = 9591597.021\nsamples = 1.3%\nvalue = 45347.431"] ;
113 -> 114 ;
115 [label="Fractime-week <= 13.747\nmse = 3683550.046\nsamples = 0.6%\nvalue = 47796.244"] ;
114 -> 115 ;
116 [label="mse = 2480826.627\nsamples = 0.1%\nvalue = 48826.984"] ;
115 -> 116 ;
117 [label="Fractime-week <= 14.048\nmse = 3612268.605\nsamples = 0.4%\nvalue = 47452.664"] ;
115 -> 117 ;
118 [label="Fractime-week <= 13.79\nmse = 3579601.049\nsamples = 0.3%\nvalue = 47715.174"] ;
117 -> 118 ;
119 [label="mse = 3098887.239\nsamples = 0.1%\nvalue = 48085.778"] ;
118 -> 119 ;
120 [label="mse = 3785621.254\nsamples = 0.1%\nvalue = 47344.571"] ;
118 -> 120 ;
121 [label="mse = 3264132.612\nsamples = 0.1%\nvalue = 46927.642"] ;
117 -> 121 ;
122 [label="Fractime-week <= 15.267\nmse = 5682809.81\nsamples = 0.7%\nvalue = 43388.381"] ;
114 -> 122 ;
123 [label="Fractime-week <= 14.744\nmse = 4540894.542\nsamples = 0.6%\nvalue = 44067.048"] ;
122 -> 123 ;
124 [label="mse = 2781272.758\nsamples = 0.1%\nvalue = 46510.714"] ;
123 -> 124 ;
125 [label="Fractime-week <= 15.197\nmse = 2473434.698\nsamples = 0.4%\nvalue = 43252.493"] ;
123 -> 125 ;
126 [label="Fractime-week <= 14.993\nmse = 1864375.547\nsamples = 0.3%\nvalue = 43939.653"] ;
125 -> 126 ;
127 [label="mse = 1564465.926\nsamples = 0.1%\nvalue = 44796.673"] ;
126 -> 127 ;
128 [label="mse = 695318.189\nsamples = 0.1%\nvalue = 43082.633"] ;
126 -> 128 ;
129 [label="mse = 858417.518\nsamples = 0.1%\nvalue = 41878.172"] ;
125 -> 129 ;
130 [label="mse = 1038685.197\nsamples = 0.1%\nvalue = 40673.712"] ;
122 -> 130 ;
131 [label="mse = 1564465.926\nsamples = 0.1%\nvalue = 39052.322"] ;
113 -> 131 ;
132 [label="Fractime-week <= 16.433\nmse = 21358366.739\nsamples = 1.2%\nvalue = 30308.401"] ;
112 -> 132 ;
133 [label="Fractime-week <= 16.129\nmse = 3285593.05\nsamples = 0.3%\nvalue = 36458.099"] ;
132 -> 133 ;
134 [label="mse = 2197548.846\nsamples = 0.1%\nvalue = 37430.933"] ;
133 -> 134 ;
135 [label="mse = 2480826.627\nsamples = 0.1%\nvalue = 35485.266"] ;
133 -> 135 ;
136 [label="Fractime-week <= 17.335\nmse = 10574273.124\nsamples = 0.9%\nvalue = 28258.501"] ;
132 -> 136 ;
137 [label="Fractime-week <= 16.583\nmse = 8479957.927\nsamples = 0.6%\nvalue = 29752.496"] ;
136 -> 137 ;
138 [label="mse = 2781272.758\nsamples = 0.1%\nvalue = 33539.598"] ;
137 -> 138 ;
139 [label="Fractime-week <= 17.15\nmse = 4005233.069\nsamples = 0.4%\nvalue = 28490.128"] ;
137 -> 139 ;
140 [label="Fractime-week <= 16.797\nmse = 3418111.254\nsamples = 0.3%\nvalue = 29300.823"] ;
139 -> 140 ;
141 [label="mse = 1804822.831\nsamples = 0.1%\nvalue = 30713.748"] ;
140 -> 141 ;
142 [label="mse = 1038685.197\nsamples = 0.1%\nvalue = 27887.898"] ;
140 -> 142 ;
143 [label="mse = 1236121.226\nsamples = 0.1%\nvalue = 26868.739"] ;
139 -> 143 ;
144 [label="Fractime-week <= 17.695\nmse = 1370785.474\nsamples = 0.3%\nvalue = 25270.512"] ;
136 -> 144 ;
145 [label="mse = 1450725.605\nsamples = 0.1%\nvalue = 25849.58"] ;
144 -> 145 ;
146 [label="mse = 620206.657\nsamples = 0.1%\nvalue = 24691.445"] ;
144 -> 146 ;
147 [label="Fractime-week <= 20.419\nmse = 1100631.943\nsamples = 4.5%\nvalue = 21867.139"] ;
41 -> 147 ;
148 [label="Fractime-week <= 20.129\nmse = 983295.806\nsamples = 1.5%\nvalue = 22416.867"] ;
147 -> 148 ;
149 [label="Fractime-week <= 18.987\nmse = 941291.9\nsamples = 1.3%\nvalue = 22431.794"] ;
148 -> 149 ;
150 [label="Fractime-week <= 18.32\nmse = 173695.42\nsamples = 0.6%\nvalue = 23035.311"] ;
149 -> 150 ;
151 [label="Fractime-week <= 18.077\nmse = 120178.453\nsamples = 0.3%\nvalue = 23348.008"] ;
150 -> 151 ;
152 [label="mse = 137346.803\nsamples = 0.1%\nvalue = 23533.309"] ;
151 -> 152 ;
153 [label="mse = 34336.701\nsamples = 0.1%\nvalue = 23162.706"] ;
151 -> 153 ;
154 [label="Fractime-week <= 18.687\nmse = 31654.146\nsamples = 0.3%\nvalue = 22722.615"] ;
150 -> 154 ;
155 [label="mse = 0.0\nsamples = 0.1%\nvalue = 22792.103"] ;
154 -> 155 ;
156 [label="mse = 53651.095\nsamples = 0.1%\nvalue = 22653.126"] ;
154 -> 156 ;
157 [label="Fractime-week <= 19.113\nmse = 1030873.597\nsamples = 0.7%\nvalue = 21948.98"] ;
149 -> 157 ;
158 [label="mse = 214604.379\nsamples = 0.1%\nvalue = 22514.15"] ;
157 -> 158 ;
159 [label="Fractime-week <= 19.347\nmse = 1135123.04\nsamples = 0.6%\nvalue = 21807.688"] ;
157 -> 159 ;
160 [label="mse = 420624.584\nsamples = 0.1%\nvalue = 21772.944"] ;
159 -> 160 ;
161 [label="Fractime-week <= 19.629\nmse = 1372752.681\nsamples = 0.4%\nvalue = 21819.269"] ;
159 -> 161 ;
162 [label="mse = 695318.189\nsamples = 0.1%\nvalue = 21031.737"] ;
161 -> 162 ;
163 [label="Fractime-week <= 19.818\nmse = 1246314.934\nsamples = 0.3%\nvalue = 22213.035"] ;
161 -> 163 ;
164 [label="mse = 946405.313\nsamples = 0.1%\nvalue = 21819.269"] ;
163 -> 164 ;
165 [label="mse = 1236121.226\nsamples = 0.1%\nvalue = 22606.801"] ;
163 -> 165 ;
166 [label="mse = 1341277.372\nsamples = 0.1%\nvalue = 22282.523"] ;
148 -> 166 ;
167 [label="Fractime-week <= 22.293\nmse = 932649.173\nsamples = 3.0%\nvalue = 21592.275"] ;
147 -> 167 ;
168 [label="Fractime-week <= 22.023\nmse = 891144.686\nsamples = 1.2%\nvalue = 21981.408"] ;
167 -> 168 ;
169 [label="Fractime-week <= 20.973\nmse = 929061.776\nsamples = 1.0%\nvalue = 21991.335"] ;
168 -> 169 ;
170 [label="Fractime-week <= 20.505\nmse = 1345569.459\nsamples = 0.3%\nvalue = 22004.571"] ;
169 -> 170 ;
171 [label="mse = 1450725.605\nsamples = 0.1%\nvalue = 21958.245"] ;
170 -> 171 ;
172 [label="mse = 1236121.226\nsamples = 0.1%\nvalue = 22050.896"] ;
170 -> 172 ;
173 [label="Fractime-week <= 21.391\nmse = 762360.598\nsamples = 0.7%\nvalue = 21986.041"] ;
169 -> 173 ;
174 [label="Fractime-week <= 21.149\nmse = 950697.401\nsamples = 0.3%\nvalue = 22097.222"] ;
173 -> 174 ;
175 [label="mse = 1038685.197\nsamples = 0.1%\nvalue = 22143.547"] ;
174 -> 175 ;
176 [label="mse = 858417.518\nsamples = 0.1%\nvalue = 22050.896"] ;
174 -> 176 ;
177 [label="Fractime-week <= 21.791\nmse = 623068.048\nsamples = 0.4%\nvalue = 21911.92"] ;
173 -> 177 ;
178 [label="Fractime-week <= 21.579\nmse = 658298.934\nsamples = 0.3%\nvalue = 21935.083"] ;
177 -> 178 ;
179 [label="mse = 695318.189\nsamples = 0.1%\nvalue = 21958.245"] ;
178 -> 179 ;
180 [label="mse = 620206.657\nsamples = 0.1%\nvalue = 21911.92"] ;
178 -> 180 ;
181 [label="mse = 549387.211\nsamples = 0.1%\nvalue = 21865.594"] ;
177 -> 181 ;
182 [label="mse = 620206.657\nsamples = 0.1%\nvalue = 21911.92"] ;
168 -> 182 ;
183 [label="Fractime-week <= 24.545\nmse = 792068.997\nsamples = 1.8%\nvalue = 21332.852"] ;
167 -> 183 ;
184 [label="Fractime-week <= 23.133\nmse = 764203.546\nsamples = 1.3%\nvalue = 21350.868"] ;
183 -> 184 ;
185 [label="Fractime-week <= 22.659\nmse = 737523.717\nsamples = 0.4%\nvalue = 21541.317"] ;
184 -> 185 ;
186 [label="mse = 695318.189\nsamples = 0.1%\nvalue = 21958.245"] ;
185 -> 186 ;
187 [label="Fractime-week <= 22.829\nmse = 628254.321\nsamples = 0.3%\nvalue = 21332.852"] ;
185 -> 187 ;
188 [label="mse = 620206.657\nsamples = 0.1%\nvalue = 21541.317"] ;
187 -> 188 ;
189 [label="mse = 549387.211\nsamples = 0.1%\nvalue = 21124.388"] ;
187 -> 189 ;
190 [label="Fractime-week <= 23.269\nmse = 750340.368\nsamples = 0.9%\nvalue = 21255.643"] ;
184 -> 190 ;
191 [label="mse = 695318.189\nsamples = 0.1%\nvalue = 21217.039"] ;
190 -> 191 ;
192 [label="Fractime-week <= 23.505\nmse = 760987.13\nsamples = 0.7%\nvalue = 21263.364"] ;
190 -> 192 ;
193 [label="mse = 858417.518\nsamples = 0.1%\nvalue = 21309.69"] ;
192 -> 193 ;
194 [label="Fractime-week <= 24.454\nmse = 735958.894\nsamples = 0.6%\nvalue = 21251.783"] ;
192 -> 194 ;
195 [label="Fractime-week <= 23.807\nmse = 727985.745\nsamples = 0.4%\nvalue = 21325.131"] ;
194 -> 195 ;
196 [label="mse = 774721.81\nsamples = 0.1%\nvalue = 21356.015"] ;
195 -> 196 ;
197 [label="Fractime-week <= 24.05\nmse = 703902.365\nsamples = 0.3%\nvalue = 21309.69"] ;
195 -> 197 ;
198 [label="mse = 695318.189\nsamples = 0.1%\nvalue = 21402.34"] ;
197 -> 198 ;
199 [label="mse = 695318.189\nsamples = 0.1%\nvalue = 21217.039"] ;
197 -> 199 ;
200 [label="mse = 695318.189\nsamples = 0.1%\nvalue = 21031.737"] ;
194 -> 200 ;
201 [label="Fractime-week <= 24.966\nmse = 871770.679\nsamples = 0.4%\nvalue = 21278.806"] ;
183 -> 201 ;
202 [label="mse = 858417.518\nsamples = 0.1%\nvalue = 21217.039"] ;
201 -> 202 ;
203 [label="Fractime-week <= 25.003\nmse = 875585.868\nsamples = 0.3%\nvalue = 21309.69"] ;
201 -> 203 ;
204 [label="mse = 1038685.197\nsamples = 0.1%\nvalue = 21402.34"] ;
203 -> 204 ;
205 [label="mse = 695318.189\nsamples = 0.1%\nvalue = 21217.039"] ;
203 -> 205 ;
206 [label="Fractime-week <= 29.211\nmse = 6961424.654\nsamples = 3.3%\nvalue = 22861.591"] ;
40 -> 206 ;
207 [label="Fractime-week <= 28.435\nmse = 529748.526\nsamples = 2.2%\nvalue = 21288.071"] ;
206 -> 207 ;
208 [label="Fractime-week <= 25.612\nmse = 514677.934\nsamples = 1.8%\nvalue = 21213.178"] ;
207 -> 208 ;
209 [label="mse = 420624.584\nsamples = 0.1%\nvalue = 21031.737"] ;
208 -> 209 ;
210 [label="Fractime-week <= 26.963\nmse = 519963.355\nsamples = 1.6%\nvalue = 21229.673"] ;
208 -> 210 ;
211 [label="Fractime-week <= 26.639\nmse = 520973.592\nsamples = 0.7%\nvalue = 21207.774"] ;
210 -> 211 ;
212 [label="Fractime-week <= 26.396\nmse = 546034.018\nsamples = 0.6%\nvalue = 21205.457"] ;
211 -> 212 ;
213 [label="Fractime-week <= 26.104\nmse = 587777.55\nsamples = 0.4%\nvalue = 21108.946"] ;
212 -> 213 ;
214 [label="Fractime-week <= 25.808\nmse = 622352.7\nsamples = 0.3%\nvalue = 21031.737"] ;
213 -> 214 ;
215 [label="mse = 549387.211\nsamples = 0.1%\nvalue = 21031.737"] ;
214 -> 215 ;
216 [label="mse = 695318.189\nsamples = 0.1%\nvalue = 21031.737"] ;
214 -> 216 ;
217 [label="mse = 482859.854\nsamples = 0.1%\nvalue = 21263.364"] ;
213 -> 217 ;
218 [label="mse = 309030.306\nsamples = 0.1%\nvalue = 21494.991"] ;
212 -> 218 ;
219 [label="mse = 420624.584\nsamples = 0.1%\nvalue = 21217.039"] ;
211 -> 219 ;
220 [label="Fractime-week <= 27.982\nmse = 518388.801\nsamples = 0.9%\nvalue = 21247.922"] ;
210 -> 220 ;
221 [label="Fractime-week <= 27.144\nmse = 620206.657\nsamples = 0.6%\nvalue = 21217.039"] ;
220 -> 221 ;
222 [label="mse = 549387.211\nsamples = 0.1%\nvalue = 20939.086"] ;
221 -> 222 ;
223 [label="Fractime-week <= 27.328\nmse = 609476.438\nsamples = 0.4%\nvalue = 21309.69"] ;
221 -> 223 ;
224 [label="mse = 620206.657\nsamples = 0.1%\nvalue = 21170.713"] ;
223 -> 224 ;
225 [label="Fractime-week <= 27.713\nmse = 589625.533\nsamples = 0.3%\nvalue = 21379.178"] ;
223 -> 225 ;
226 [label="mse = 695318.189\nsamples = 0.1%\nvalue = 21402.34"] ;
225 -> 226 ;
227 [label="mse = 482859.854\nsamples = 0.1%\nvalue = 21356.015"] ;
225 -> 227 ;
228 [label="Fractime-week <= 28.031\nmse = 309030.306\nsamples = 0.3%\nvalue = 21309.69"] ;
220 -> 228 ;
229 [label="mse = 309030.306\nsamples = 0.1%\nvalue = 21309.69"] ;
228 -> 229 ;
230 [label="mse = 309030.306\nsamples = 0.1%\nvalue = 21309.69"] ;
228 -> 230 ;
231 [label="Fractime-week <= 28.73\nmse = 477852.418\nsamples = 0.4%\nvalue = 21587.642"] ;
207 -> 231 ;
232 [label="mse = 309030.306\nsamples = 0.1%\nvalue = 21309.69"] ;
231 -> 232 ;
233 [label="Fractime-week <= 28.87\nmse = 504320.292\nsamples = 0.3%\nvalue = 21726.618"] ;
231 -> 233 ;
234 [label="mse = 420624.584\nsamples = 0.1%\nvalue = 21587.642"] ;
233 -> 234 ;
235 [label="mse = 549387.211\nsamples = 0.1%\nvalue = 21865.594"] ;
233 -> 235 ;
236 [label="Fractime-week <= 30.6\nmse = 4068723.847\nsamples = 1.0%\nvalue = 26233.419"] ;
206 -> 236 ;
237 [label="Fractime-week <= 29.791\nmse = 2951525.566\nsamples = 0.9%\nvalue = 25756.929"] ;
236 -> 237 ;
238 [label="Fractime-week <= 29.582\nmse = 1313378.802\nsamples = 0.4%\nvalue = 24552.468"] ;
237 -> 238 ;
239 [label="Fractime-week <= 29.417\nmse = 607330.394\nsamples = 0.3%\nvalue = 23950.238"] ;
238 -> 239 ;
240 [label="mse = 214604.379\nsamples = 0.1%\nvalue = 23255.357"] ;
239 -> 240 ;
241 [label="mse = 34336.701\nsamples = 0.1%\nvalue = 24645.119"] ;
239 -> 241 ;
242 [label="mse = 549387.211\nsamples = 0.1%\nvalue = 25756.929"] ;
238 -> 242 ;
243 [label="Fractime-week <= 30.465\nmse = 1688221.118\nsamples = 0.4%\nvalue = 26961.39"] ;
237 -> 243 ;
244 [label="Fractime-week <= 30.169\nmse = 1684644.379\nsamples = 0.3%\nvalue = 26915.064"] ;
243 -> 244 ;
245 [label="mse = 1682498.335\nsamples = 0.1%\nvalue = 26868.739"] ;
244 -> 245 ;
246 [label="mse = 1682498.335\nsamples = 0.1%\nvalue = 26961.39"] ;
244 -> 246 ;
247 [label="mse = 1682498.335\nsamples = 0.1%\nvalue = 27054.041"] ;
243 -> 247 ;
248 [label="mse = 1236121.226\nsamples = 0.1%\nvalue = 29092.359"] ;
236 -> 248 ;
249 [label="Fractime-week <= 63.112\nmse = 145170743.622\nsamples = 21.3%\nvalue = 35274.372"] ;
3 -> 249 ;
250 [label="Fractime-week <= 50.807\nmse = 154839942.068\nsamples = 19.2%\nvalue = 35536.978"] ;
249 -> 250 ;
251 [label="Fractime-week <= 46.336\nmse = 145226780.255\nsamples = 11.9%\nvalue = 33452.159"] ;
250 -> 251 ;
252 [label="Fractime-week <= 44.547\nmse = 130076280.599\nsamples = 9.2%\nvalue = 37041.65"] ;
251 -> 252 ;
253 [label="Fractime-week <= 33.853\nmse = 113793000.994\nsamples = 8.2%\nvalue = 38965.567"] ;
252 -> 253 ;
254 [label="Fractime-week <= 31.746\nmse = 38301859.396\nsamples = 1.8%\nvalue = 40631.247"] ;
253 -> 254 ;
255 [label="Fractime-week <= 31.438\nmse = 1326970.413\nsamples = 0.4%\nvalue = 32288.812"] ;
254 -> 255 ;
256 [label="Fractime-week <= 31.175\nmse = 945868.802\nsamples = 0.3%\nvalue = 31709.744"] ;
255 -> 256 ;
257 [label="mse = 858417.518\nsamples = 0.1%\nvalue = 31130.677"] ;
256 -> 257 ;
258 [label="mse = 362681.401\nsamples = 0.1%\nvalue = 32288.812"] ;
256 -> 258 ;
259 [label="mse = 77257.577\nsamples = 0.1%\nvalue = 33446.947"] ;
255 -> 259 ;
260 [label="Fractime-week <= 32.24\nmse = 19695171.206\nsamples = 1.3%\nvalue = 43412.058"] ;
254 -> 260 ;
261 [label="Fractime-week <= 31.771\nmse = 3109080.948\nsamples = 0.3%\nvalue = 37268.794"] ;
260 -> 261 ;
262 [label="mse = 774721.81\nsamples = 0.1%\nvalue = 35994.845"] ;
261 -> 262 ;
263 [label="mse = 2197548.846\nsamples = 0.1%\nvalue = 38542.743"] ;
261 -> 263 ;
264 [label="Fractime-week <= 33.1\nmse = 10570491.999\nsamples = 1.0%\nvalue = 45167.277"] ;
260 -> 264 ;
265 [label="Fractime-week <= 32.322\nmse = 9818150.361\nsamples = 0.6%\nvalue = 43545.887"] ;
264 -> 265 ;
266 [label="mse = 1804822.831\nsamples = 0.1%\nvalue = 40349.434"] ;
265 -> 266 ;
267 [label="Fractime-week <= 32.89\nmse = 7948230.867\nsamples = 0.4%\nvalue = 44611.372"] ;
265 -> 267 ;
268 [label="Fractime-week <= 32.641\nmse = 4036171.867\nsamples = 0.3%\nvalue = 43383.748"] ;
267 -> 268 ;
269 [label="mse = 1450725.605\nsamples = 0.1%\nvalue = 42156.125"] ;
268 -> 269 ;
270 [label="mse = 3607499.619\nsamples = 0.1%\nvalue = 44611.372"] ;
268 -> 270 ;
271 [label="mse = 6729993.34\nsamples = 0.1%\nvalue = 47066.619"] ;
267 -> 271 ;
272 [label="Fractime-week <= 33.522\nmse = 3394802.834\nsamples = 0.4%\nvalue = 47329.129"] ;
264 -> 272 ;
273 [label="Fractime-week <= 33.274\nmse = 3920285.502\nsamples = 0.3%\nvalue = 46997.13"] ;
272 -> 273 ;
274 [label="mse = 4740610.742\nsamples = 0.1%\nvalue = 47020.293"] ;
273 -> 274 ;
275 [label="mse = 3098887.239\nsamples = 0.1%\nvalue = 46973.968"] ;
273 -> 275 ;
276 [label="mse = 1682498.335\nsamples = 0.1%\nvalue = 47993.127"] ;
272 -> 276 ;
277 [label="Fractime-week <= 37.372\nmse = 133869943.8\nsamples = 6.4%\nvalue = 38500.727"] ;
253 -> 277 ;
278 [label="Fractime-week <= 36.776\nmse = 2979321.942\nsamples = 2.1%\nvalue = 49475.54"] ;
277 -> 278 ;
279 [label="Fractime-week <= 35.045\nmse = 3148112.119\nsamples = 1.8%\nvalue = 49510.284"] ;
278 -> 279 ;
280 [label="Fractime-week <= 34.951\nmse = 1809629.969\nsamples = 0.7%\nvalue = 49225.383"] ;
279 -> 280 ;
281 [label="Fractime-week <= 34.115\nmse = 1836879.36\nsamples = 0.6%\nvalue = 49255.494"] ;
280 -> 281 ;
282 [label="mse = 695318.189\nsamples = 0.1%\nvalue = 49012.286"] ;
281 -> 282 ;
283 [label="Fractime-week <= 34.636\nmse = 2191110.714\nsamples = 0.4%\nvalue = 49336.564"] ;
281 -> 283 ;
284 [label="Fractime-week <= 34.48\nmse = 2186282.116\nsamples = 0.3%\nvalue = 49359.726"] ;
283 -> 284 ;
285 [label="mse = 1564465.926\nsamples = 0.1%\nvalue = 49243.913"] ;
284 -> 285 ;
286 [label="mse = 2781272.758\nsamples = 0.1%\nvalue = 49475.54"] ;
284 -> 286 ;
287 [label="mse = 2197548.846\nsamples = 0.1%\nvalue = 49290.238"] ;
283 -> 287 ;
288 [label="mse = 1682498.335\nsamples = 0.1%\nvalue = 49104.937"] ;
280 -> 288 ;
289 [label="Fractime-week <= 36.405\nmse = 4004780.502\nsamples = 1.0%\nvalue = 49713.785"] ;
279 -> 289 ;
290 [label="Fractime-week <= 35.46\nmse = 4215173.38\nsamples = 0.7%\nvalue = 49697.902"] ;
289 -> 290 ;
291 [label="mse = 3098887.239\nsamples = 0.1%\nvalue = 49568.191"] ;
290 -> 291 ;
292 [label="Fractime-week <= 35.506\nmse = 4488987.107\nsamples = 0.6%\nvalue = 49730.33"] ;
290 -> 292 ;
293 [label="mse = 4944484.903\nsamples = 0.1%\nvalue = 50031.445"] ;
292 -> 293 ;
294 [label="Fractime-week <= 36.028\nmse = 4296856.576\nsamples = 0.4%\nvalue = 49629.958"] ;
292 -> 294 ;
295 [label="Fractime-week <= 35.778\nmse = 4367199.122\nsamples = 0.3%\nvalue = 49614.516"] ;
294 -> 295 ;
296 [label="mse = 4541028.669\nsamples = 0.1%\nvalue = 49753.492"] ;
295 -> 296 ;
297 [label="mse = 4154740.786\nsamples = 0.1%\nvalue = 49475.54"] ;
295 -> 297 ;
298 [label="mse = 4154740.786\nsamples = 0.1%\nvalue = 49660.842"] ;
294 -> 298 ;
299 [label="Fractime-week <= 36.591\nmse = 3476590.947\nsamples = 0.3%\nvalue = 49753.492"] ;
289 -> 299 ;
300 [label="mse = 4154740.786\nsamples = 0.1%\nvalue = 49846.143"] ;
299 -> 300 ;
301 [label="mse = 2781272.758\nsamples = 0.1%\nvalue = 49660.842"] ;
299 -> 301 ;
302 [label="Fractime-week <= 37.157\nmse = 1915880.598\nsamples = 0.3%\nvalue = 49267.076"] ;
278 -> 302 ;
303 [label="mse = 1682498.335\nsamples = 0.1%\nvalue = 49475.54"] ;
302 -> 303 ;
304 [label="mse = 2062348.087\nsamples = 0.1%\nvalue = 49058.611"] ;
302 -> 304 ;
305 [label="Fractime-week <= 40.091\nmse = 110841148.642\nsamples = 4.3%\nvalue = 33202.541"] ;
277 -> 305 ;
306 [label="Fractime-week <= 38.432\nmse = 16439263.016\nsamples = 1.6%\nvalue = 45348.367"] ;
305 -> 306 ;
307 [label="Fractime-week <= 38.131\nmse = 3021629.663\nsamples = 0.6%\nvalue = 48549.032"] ;
306 -> 307 ;
308 [label="Fractime-week <= 37.752\nmse = 2480826.627\nsamples = 0.4%\nvalue = 48641.683"] ;
307 -> 308 ;
309 [label="Fractime-week <= 37.602\nmse = 2480826.627\nsamples = 0.3%\nvalue = 48641.683"] ;
308 -> 309 ;
310 [label="mse = 2480826.627\nsamples = 0.1%\nvalue = 48641.683"] ;
309 -> 310 ;
311 [label="mse = 2480826.627\nsamples = 0.1%\nvalue = 48641.683"] ;
309 -> 311 ;
312 [label="mse = 2480826.627\nsamples = 0.1%\nvalue = 48641.683"] ;
308 -> 312 ;
313 [label="mse = 4541028.669\nsamples = 0.1%\nvalue = 48271.079"] ;
307 -> 313 ;
314 [label="Fractime-week <= 39.009\nmse = 14907558.915\nsamples = 1.0%\nvalue = 43519.416"] ;
306 -> 314 ;
315 [label="Fractime-week <= 38.875\nmse = 6855179.228\nsamples = 0.4%\nvalue = 46557.039"] ;
314 -> 315 ;
316 [label="Fractime-week <= 38.707\nmse = 6851781.325\nsamples = 0.3%\nvalue = 47228.758"] ;
315 -> 316 ;
317 [label="mse = 7219291.325\nsamples = 0.1%\nvalue = 47900.476"] ;
316 -> 317 ;
318 [label="mse = 5581859.91\nsamples = 0.1%\nvalue = 46557.039"] ;
316 -> 318 ;
319 [label="mse = 4154740.786\nsamples = 0.1%\nvalue = 45213.602"] ;
315 -> 319 ;
320 [label="Fractime-week <= 39.465\nmse = 8836201.197\nsamples = 0.6%\nvalue = 41241.198"] ;
314 -> 320 ;
321 [label="mse = 4345738.684\nsamples = 0.1%\nvalue = 43777.514"] ;
320 -> 321 ;
322 [label="Fractime-week <= 39.917\nmse = 7473955.189\nsamples = 0.4%\nvalue = 40395.759"] ;
320 -> 322 ;
323 [label="Fractime-week <= 39.556\nmse = 5689162.1\nsamples = 0.3%\nvalue = 41368.593"] ;
322 -> 323 ;
324 [label="mse = 4541028.669\nsamples = 0.1%\nvalue = 42341.427"] ;
323 -> 324 ;
325 [label="mse = 4944484.903\nsamples = 0.1%\nvalue = 40395.759"] ;
323 -> 325 ;
326 [label="mse = 5365109.487\nsamples = 0.1%\nvalue = 38450.092"] ;
322 -> 326 ;
327 [label="Fractime-week <= 43.97\nmse = 23286661.603\nsamples = 2.7%\nvalue = 25780.092"] ;
305 -> 327 ;
328 [label="Fractime-week <= 41.439\nmse = 25447129.197\nsamples = 2.2%\nvalue = 26396.22"] ;
327 -> 328 ;
329 [label="Fractime-week <= 40.99\nmse = 17581163.342\nsamples = 0.7%\nvalue = 32159.101"] ;
328 -> 329 ;
330 [label="Fractime-week <= 40.271\nmse = 7938692.895\nsamples = 0.4%\nvalue = 34759.501"] ;
329 -> 330 ;
331 [label="mse = 4154740.786\nsamples = 0.1%\nvalue = 36875.028"] ;
330 -> 331 ;
332 [label="Fractime-week <= 40.554\nmse = 6474077.618\nsamples = 0.3%\nvalue = 33701.737"] ;
330 -> 332 ;
333 [label="mse = 3098887.239\nsamples = 0.1%\nvalue = 35299.964"] ;
332 -> 333 ;
334 [label="mse = 4740610.742\nsamples = 0.1%\nvalue = 32103.51"] ;
332 -> 334 ;
335 [label="Fractime-week <= 41.123\nmse = 6687072.464\nsamples = 0.3%\nvalue = 28258.501"] ;
329 -> 335 ;
336 [label="mse = 6729993.34\nsamples = 0.1%\nvalue = 28907.057"] ;
335 -> 336 ;
337 [label="mse = 5802902.421\nsamples = 0.1%\nvalue = 27609.946"] ;
335 -> 337 ;
338 [label="Fractime-week <= 42.948\nmse = 4472011.901\nsamples = 1.5%\nvalue = 23514.779"] ;
328 -> 338 ;
339 [label="Fractime-week <= 42.454\nmse = 3922193.096\nsamples = 0.9%\nvalue = 24513.864"] ;
338 -> 339 ;
340 [label="Fractime-week <= 41.587\nmse = 4074130.016\nsamples = 0.6%\nvalue = 25027.304"] ;
339 -> 340 ;
341 [label="mse = 4944484.903\nsamples = 0.1%\nvalue = 26312.834"] ;
340 -> 341 ;
342 [label="Fractime-week <= 42.005\nmse = 3049528.232\nsamples = 0.4%\nvalue = 24598.794"] ;
340 -> 342 ;
343 [label="Fractime-week <= 41.758\nmse = 3280764.451\nsamples = 0.3%\nvalue = 24853.584"] ;
342 -> 343 ;
344 [label="mse = 3607499.619\nsamples = 0.1%\nvalue = 25340.0"] ;
343 -> 344 ;
345 [label="mse = 2480826.627\nsamples = 0.1%\nvalue = 24367.167"] ;
343 -> 345 ;
346 [label="mse = 2197548.846\nsamples = 0.1%\nvalue = 24089.214"] ;
342 -> 346 ;
347 [label="Fractime-week <= 42.717\nmse = 2036595.561\nsamples = 0.3%\nvalue = 23486.984"] ;
339 -> 347 ;
348 [label="mse = 1931439.415\nsamples = 0.1%\nvalue = 23811.262"] ;
347 -> 348 ;
349 [label="mse = 1931439.415\nsamples = 0.1%\nvalue = 23162.706"] ;
347 -> 349 ;
350 [label="Fractime-week <= 43.535\nmse = 1553601.58\nsamples = 0.6%\nvalue = 22016.152"] ;
338 -> 350 ;
351 [label="Fractime-week <= 43.137\nmse = 1679636.943\nsamples = 0.4%\nvalue = 21958.245"] ;
350 -> 351 ;
352 [label="mse = 1931439.415\nsamples = 0.1%\nvalue = 22514.15"] ;
351 -> 352 ;
353 [label="Fractime-week <= 43.398\nmse = 1321962.978\nsamples = 0.3%\nvalue = 21680.293"] ;
351 -> 353 ;
354 [label="mse = 1450725.605\nsamples = 0.1%\nvalue = 21958.245"] ;
353 -> 354 ;
355 [label="mse = 1038685.197\nsamples = 0.1%\nvalue = 21402.34"] ;
353 -> 355 ;
356 [label="mse = 1135257.167\nsamples = 0.1%\nvalue = 22189.872"] ;
350 -> 356 ;
357 [label="Fractime-week <= 44.072\nmse = 1095913.031\nsamples = 0.4%\nvalue = 22699.452"] ;
327 -> 357 ;
358 [label="mse = 1236121.226\nsamples = 0.1%\nvalue = 22977.404"] ;
357 -> 358 ;
359 [label="Fractime-week <= 44.304\nmse = 967865.751\nsamples = 0.3%\nvalue = 22560.476"] ;
357 -> 359 ;
360 [label="mse = 1038685.197\nsamples = 0.1%\nvalue = 22699.452"] ;
359 -> 360 ;
361 [label="mse = 858417.518\nsamples = 0.1%\nvalue = 22421.499"] ;
359 -> 361 ;
362 [label="Fractime-week <= 45.036\nmse = 425048.062\nsamples = 1.0%\nvalue = 21925.156"] ;
252 -> 362 ;
363 [label="Fractime-week <= 44.824\nmse = 739848.598\nsamples = 0.3%\nvalue = 22213.035"] ;
362 -> 363 ;
364 [label="mse = 774721.81\nsamples = 0.1%\nvalue = 22282.523"] ;
363 -> 364 ;
365 [label="mse = 695318.189\nsamples = 0.1%\nvalue = 22143.547"] ;
363 -> 365 ;
366 [label="Fractime-week <= 45.432\nmse = 252718.117\nsamples = 0.7%\nvalue = 21810.004"] ;
362 -> 366 ;
367 [label="mse = 482859.854\nsamples = 0.1%\nvalue = 22004.571"] ;
366 -> 367 ;
368 [label="Fractime-week <= 45.513\nmse = 183352.617\nsamples = 0.6%\nvalue = 21761.362"] ;
366 -> 368 ;
369 [label="mse = 309030.306\nsamples = 0.1%\nvalue = 21865.594"] ;
368 -> 369 ;
370 [label="Fractime-week <= 45.851\nmse = 136631.455\nsamples = 0.4%\nvalue = 21726.618"] ;
368 -> 370 ;
371 [label="mse = 214604.379\nsamples = 0.1%\nvalue = 21772.944"] ;
370 -> 371 ;
372 [label="Fractime-week <= 46.094\nmse = 96035.46\nsamples = 0.3%\nvalue = 21703.456"] ;
370 -> 372 ;
373 [label="mse = 137346.803\nsamples = 0.1%\nvalue = 21680.293"] ;
372 -> 373 ;
374 [label="mse = 53651.095\nsamples = 0.1%\nvalue = 21726.618"] ;
372 -> 374 ;
375 [label="Fractime-week <= 47.161\nmse = 168477.685\nsamples = 2.7%\nvalue = 21088.357"] ;
251 -> 375 ;
376 [label="Fractime-week <= 46.873\nmse = 39344.136\nsamples = 0.4%\nvalue = 21541.317"] ;
375 -> 376 ;
377 [label="Fractime-week <= 46.541\nmse = 18777.883\nsamples = 0.3%\nvalue = 21657.13"] ;
376 -> 377 ;
378 [label="mse = 8584.175\nsamples = 0.1%\nvalue = 21772.944"] ;
377 -> 378 ;
379 [label="mse = 2146.044\nsamples = 0.1%\nvalue = 21541.317"] ;
377 -> 379 ;
380 [label="mse = -0.0\nsamples = 0.1%\nvalue = 21309.69"] ;
376 -> 380 ;
381 [label="Fractime-week <= 50.136\nmse = 145063.023\nsamples = 2.2%\nvalue = 20997.765"] ;
375 -> 381 ;
382 [label="Fractime-week <= 48.522\nmse = 147361.674\nsamples = 1.8%\nvalue = 20985.412"] ;
381 -> 382 ;
383 [label="Fractime-week <= 47.714\nmse = 179492.718\nsamples = 0.9%\nvalue = 21039.458"] ;
382 -> 383 ;
384 [label="Fractime-week <= 47.486\nmse = 195289.985\nsamples = 0.3%\nvalue = 21170.713"] ;
383 -> 384 ;
385 [label="mse = 77257.577\nsamples = 0.1%\nvalue = 21217.039"] ;
384 -> 385 ;
386 [label="mse = 309030.306\nsamples = 0.1%\nvalue = 21124.388"] ;
384 -> 386 ;
387 [label="Fractime-week <= 47.764\nmse = 158673.113\nsamples = 0.6%\nvalue = 20973.83"] ;
383 -> 387 ;
388 [label="mse = 173829.547\nsamples = 0.1%\nvalue = 21078.062"] ;
387 -> 388 ;
389 [label="Fractime-week <= 48.453\nmse = 148792.37\nsamples = 0.4%\nvalue = 20939.086"] ;
387 -> 389 ;
390 [label="Fractime-week <= 48.192\nmse = 109448.234\nsamples = 0.3%\nvalue = 20985.412"] ;
389 -> 390 ;
391 [label="mse = 77257.577\nsamples = 0.1%\nvalue = 21031.737"] ;
390 -> 391 ;
392 [label="mse = 137346.803\nsamples = 0.1%\nvalue = 20939.086"] ;
390 -> 392 ;
393 [label="mse = 214604.379\nsamples = 0.1%\nvalue = 20846.435"] ;
389 -> 393 ;
394 [label="Fractime-week <= 48.996\nmse = 109388.621\nsamples = 0.9%\nvalue = 20931.365"] ;
382 -> 394 ;
395 [label="mse = 105156.146\nsamples = 0.1%\nvalue = 20892.761"] ;
394 -> 395 ;
396 [label="mse = 109877.442\nsamples = 0.7%\nvalue = 20939.086"] ;
394 -> 396 ;
397 [label="Fractime-week <= 50.631\nmse = 132816.266\nsamples = 0.4%\nvalue = 21047.179"] ;
381 -> 397 ;
398 [label="Fractime-week <= 50.355\nmse = 126080.073\nsamples = 0.3%\nvalue = 21008.574"] ;
397 -> 398 ;
399 [label="mse = 173829.547\nsamples = 0.1%\nvalue = 20985.412"] ;
398 -> 399 ;
400 [label="mse = 77257.577\nsamples = 0.1%\nvalue = 21031.737"] ;
398 -> 400 ;
401 [label="mse = 137346.803\nsamples = 0.1%\nvalue = 21124.388"] ;
397 -> 401 ;
402 [label="Fractime-week <= 54.103\nmse = 151852869.245\nsamples = 7.3%\nvalue = 38940.763"] ;
250 -> 402 ;
403 [label="Fractime-week <= 53.459\nmse = 3859793.099\nsamples = 1.9%\nvalue = 22246.888"] ;
402 -> 403 ;
404 [label="Fractime-week <= 52.938\nmse = 458910.005\nsamples = 1.5%\nvalue = 21291.159"] ;
403 -> 404 ;
405 [label="Fractime-week <= 51.173\nmse = 128628.5\nsamples = 1.2%\nvalue = 21089.644"] ;
404 -> 405 ;
406 [label="mse = 214604.379\nsamples = 0.1%\nvalue = 21217.039"] ;
405 -> 406 ;
407 [label="Fractime-week <= 52.109\nmse = 113696.524\nsamples = 1.0%\nvalue = 21071.445"] ;
405 -> 407 ;
408 [label="Fractime-week <= 51.391\nmse = 93218.777\nsamples = 0.6%\nvalue = 21043.318"] ;
407 -> 408 ;
409 [label="mse = 105156.146\nsamples = 0.1%\nvalue = 21078.062"] ;
408 -> 409 ;
410 [label="Fractime-week <= 51.53\nmse = 88703.144\nsamples = 0.4%\nvalue = 21031.737"] ;
408 -> 410 ;
411 [label="mse = 34336.701\nsamples = 0.1%\nvalue = 20939.086"] ;
410 -> 411 ;
412 [label="Fractime-week <= 51.777\nmse = 109448.234\nsamples = 0.3%\nvalue = 21078.062"] ;
410 -> 412 ;
413 [label="mse = 77257.577\nsamples = 0.1%\nvalue = 21031.737"] ;
412 -> 413 ;
414 [label="mse = 137346.803\nsamples = 0.1%\nvalue = 21124.388"] ;
412 -> 414 ;
415 [label="Fractime-week <= 52.29\nmse = 138539.049\nsamples = 0.4%\nvalue = 21108.946"] ;
407 -> 415 ;
416 [label="mse = 105156.146\nsamples = 0.1%\nvalue = 21078.062"] ;
415 -> 416 ;
417 [label="Fractime-week <= 52.515\nmse = 154515.153\nsamples = 0.3%\nvalue = 21124.388"] ;
415 -> 417 ;
418 [label="mse = 77257.577\nsamples = 0.1%\nvalue = 21031.737"] ;
417 -> 418 ;
419 [label="mse = 214604.379\nsamples = 0.1%\nvalue = 21217.039"] ;
417 -> 419 ;
420 [label="Fractime-week <= 53.089\nmse = 967865.751\nsamples = 0.3%\nvalue = 22097.222"] ;
404 -> 420 ;
421 [label="mse = 420624.584\nsamples = 0.1%\nvalue = 21402.34"] ;
420 -> 421 ;
422 [label="mse = 549387.211\nsamples = 0.1%\nvalue = 22792.103"] ;
420 -> 422 ;
423 [label="Fractime-week <= 53.679\nmse = 2002258.86\nsamples = 0.4%\nvalue = 25432.651"] ;
403 -> 423 ;
424 [label="mse = 695318.189\nsamples = 0.1%\nvalue = 24181.865"] ;
423 -> 424 ;
425 [label="Fractime-week <= 53.876\nmse = 1482379.751\nsamples = 0.3%\nvalue = 26058.044"] ;
423 -> 425 ;
426 [label="mse = 946405.313\nsamples = 0.1%\nvalue = 25432.651"] ;
425 -> 426 ;
427 [label="mse = 1236121.226\nsamples = 0.1%\nvalue = 26683.437"] ;
425 -> 427 ;
428 [label="Fractime-week <= 56.228\nmse = 68317469.468\nsamples = 5.4%\nvalue = 44969.107"] ;
402 -> 428 ;
429 [label="Fractime-week <= 54.431\nmse = 21473180.082\nsamples = 1.2%\nvalue = 31165.421"] ;
428 -> 429 ;
430 [label="mse = 1236121.226\nsamples = 0.1%\nvalue = 26034.882"] ;
429 -> 430 ;
431 [label="Fractime-week <= 54.942\nmse = 20066648.197\nsamples = 1.0%\nvalue = 31898.355"] ;
429 -> 431 ;
432 [label="Fractime-week <= 54.588\nmse = 2808634.816\nsamples = 0.3%\nvalue = 26660.275"] ;
431 -> 432 ;
433 [label="mse = 1236121.226\nsamples = 0.1%\nvalue = 25386.326"] ;
432 -> 433 ;
434 [label="mse = 1135257.167\nsamples = 0.1%\nvalue = 27934.223"] ;
432 -> 434 ;
435 [label="Fractime-week <= 55.276\nmse = 11604860.582\nsamples = 0.7%\nvalue = 33993.587"] ;
431 -> 435 ;
436 [label="Fractime-week <= 55.037\nmse = 1164765.27\nsamples = 0.3%\nvalue = 31061.189"] ;
435 -> 436 ;
437 [label="mse = 1038685.197\nsamples = 0.1%\nvalue = 30482.121"] ;
436 -> 437 ;
438 [label="mse = 620206.657\nsamples = 0.1%\nvalue = 31640.256"] ;
436 -> 438 ;
439 [label="Fractime-week <= 55.565\nmse = 9010522.546\nsamples = 0.4%\nvalue = 35948.52"] ;
435 -> 439 ;
440 [label="mse = 309030.306\nsamples = 0.1%\nvalue = 32798.392"] ;
439 -> 440 ;
441 [label="Fractime-week <= 55.852\nmse = 5918788.786\nsamples = 0.3%\nvalue = 37523.584"] ;
439 -> 441 ;
442 [label="mse = 1931439.415\nsamples = 0.1%\nvalue = 35948.52"] ;
441 -> 442 ;
443 [label="mse = 4944484.903\nsamples = 0.1%\nvalue = 39098.648"] ;
441 -> 443 ;
444 [label="Fractime-week <= 58.714\nmse = 11706625.103\nsamples = 4.2%\nvalue = 48913.017"] ;
428 -> 444 ;
445 [label="Fractime-week <= 56.582\nmse = 14966058.755\nsamples = 1.5%\nvalue = 46422.695"] ;
444 -> 445 ;
446 [label="Fractime-week <= 56.34\nmse = 7938215.996\nsamples = 0.3%\nvalue = 42017.149"] ;
445 -> 446 ;
447 [label="mse = 6257863.705\nsamples = 0.1%\nvalue = 41044.315"] ;
446 -> 447 ;
448 [label="mse = 7725757.661\nsamples = 0.1%\nvalue = 42989.982"] ;
446 -> 448 ;
449 [label="Fractime-week <= 58.439\nmse = 10657756.463\nsamples = 1.2%\nvalue = 47524.082"] ;
445 -> 449 ;
450 [label="Fractime-week <= 57.113\nmse = 9708220.362\nsamples = 1.0%\nvalue = 47099.708"] ;
449 -> 450 ;
451 [label="Fractime-week <= 56.993\nmse = 11934149.542\nsamples = 0.3%\nvalue = 45630.531"] ;
450 -> 451 ;
452 [label="mse = 9923306.506\nsamples = 0.1%\nvalue = 44750.348"] ;
451 -> 452 ;
453 [label="mse = 12395548.958\nsamples = 0.1%\nvalue = 46510.714"] ;
451 -> 453 ;
454 [label="Fractime-week <= 57.957\nmse = 7609098.72\nsamples = 0.7%\nvalue = 47687.379"] ;
450 -> 454 ;
455 [label="Fractime-week <= 57.401\nmse = 8526231.996\nsamples = 0.4%\nvalue = 47112.944"] ;
454 -> 455 ;
456 [label="mse = 10515614.594\nsamples = 0.1%\nvalue = 46788.666"] ;
455 -> 456 ;
457 [label="Fractime-week <= 57.532\nmse = 7452673.588\nsamples = 0.3%\nvalue = 47275.083"] ;
455 -> 457 ;
458 [label="mse = 8790195.383\nsamples = 0.1%\nvalue = 47066.619"] ;
457 -> 458 ;
459 [label="mse = 6028237.019\nsamples = 0.1%\nvalue = 47483.547"] ;
457 -> 459 ;
460 [label="Fractime-week <= 58.155\nmse = 4995989.954\nsamples = 0.3%\nvalue = 48549.032"] ;
454 -> 460 ;
461 [label="mse = 3785621.254\nsamples = 0.1%\nvalue = 47900.476"] ;
460 -> 461 ;
462 [label="mse = 5365109.487\nsamples = 0.1%\nvalue = 49197.588"] ;
460 -> 462 ;
463 [label="mse = 7219291.325\nsamples = 0.1%\nvalue = 50494.699"] ;
449 -> 463 ;
464 [label="Fractime-week <= 58.824\nmse = 4536332.543\nsamples = 2.7%\nvalue = 50296.529"] ;
444 -> 464 ;
465 [label="mse = 6972496.289\nsamples = 0.1%\nvalue = 51189.58"] ;
464 -> 465 ;
466 [label="Fractime-week <= 59.342\nmse = 4343355.016\nsamples = 2.5%\nvalue = 50243.997"] ;
464 -> 466 ;
467 [label="Fractime-week <= 59.22\nmse = 6160755.223\nsamples = 0.3%\nvalue = 51814.973"] ;
466 -> 467 ;
468 [label="mse = 6729993.34\nsamples = 0.1%\nvalue = 51884.461"] ;
467 -> 468 ;
469 [label="mse = 5581859.91\nsamples = 0.1%\nvalue = 51745.485"] ;
467 -> 469 ;
470 [label="Fractime-week <= 61.361\nmse = 3728097.742\nsamples = 2.2%\nvalue = 50034.533"] ;
466 -> 470 ;
471 [label="Fractime-week <= 59.601\nmse = 2495714.805\nsamples = 1.2%\nvalue = 50575.769"] ;
470 -> 471 ;
472 [label="mse = 4541028.669\nsamples = 0.1%\nvalue = 51606.509"] ;
471 -> 472 ;
473 [label="Fractime-week <= 60.443\nmse = 2030069.836\nsamples = 1.0%\nvalue = 50428.52"] ;
471 -> 473 ;
474 [label="Fractime-week <= 59.889\nmse = 2361840.421\nsamples = 0.4%\nvalue = 50757.21"] ;
473 -> 474 ;
475 [label="mse = 3264132.612\nsamples = 0.1%\nvalue = 51189.58"] ;
474 -> 475 ;
476 [label="Fractime-week <= 60.042\nmse = 1770486.131\nsamples = 0.3%\nvalue = 50541.024"] ;
474 -> 476 ;
477 [label="mse = 2197548.846\nsamples = 0.1%\nvalue = 50772.652"] ;
476 -> 477 ;
478 [label="mse = 1236121.226\nsamples = 0.1%\nvalue = 50309.397"] ;
476 -> 478 ;
479 [label="Fractime-week <= 60.922\nmse = 1639443.331\nsamples = 0.6%\nvalue = 50182.003"] ;
473 -> 479 ;
480 [label="Fractime-week <= 60.685\nmse = 950160.89\nsamples = 0.3%\nvalue = 49915.631"] ;
479 -> 480 ;
481 [label="mse = 549387.211\nsamples = 0.1%\nvalue = 49846.143"] ;
480 -> 481 ;
482 [label="mse = 1341277.372\nsamples = 0.1%\nvalue = 49985.12"] ;
480 -> 482 ;
483 [label="Fractime-week <= 61.099\nmse = 2186818.627\nsamples = 0.3%\nvalue = 50448.374"] ;
479 -> 483 ;
484 [label="mse = 2480826.627\nsamples = 0.1%\nvalue = 50124.096"] ;
483 -> 484 ;
485 [label="mse = 1682498.335\nsamples = 0.1%\nvalue = 50772.652"] ;
483 -> 485 ;
486 [label="Fractime-week <= 61.608\nmse = 4419142.141\nsamples = 1.0%\nvalue = 49415.979"] ;
470 -> 486 ;
487 [label="mse = 1038685.197\nsamples = 0.1%\nvalue = 51421.207"] ;
486 -> 487 ;
488 [label="Fractime-week <= 62.43\nmse = 4200701.891\nsamples = 0.9%\nvalue = 49081.774"] ;
486 -> 488 ;
489 [label="Fractime-week <= 61.894\nmse = 374842.316\nsamples = 0.4%\nvalue = 50680.001"] ;
488 -> 489 ;
490 [label="mse = 309030.306\nsamples = 0.1%\nvalue = 51143.255"] ;
489 -> 490 ;
491 [label="Fractime-week <= 62.068\nmse = 246795.036\nsamples = 0.3%\nvalue = 50448.374"] ;
489 -> 491 ;
492 [label="mse = 8584.175\nsamples = 0.1%\nvalue = 50865.302"] ;
491 -> 492 ;
493 [label="mse = 137346.803\nsamples = 0.1%\nvalue = 50031.445"] ;
491 -> 493 ;
494 [label="Fractime-week <= 62.515\nmse = 2917904.213\nsamples = 0.4%\nvalue = 47483.547"] ;
488 -> 494 ;
495 [label="mse = 695318.189\nsamples = 0.1%\nvalue = 49197.588"] ;
494 -> 495 ;
496 [label="Fractime-week <= 62.958\nmse = 1825746.758\nsamples = 0.3%\nvalue = 46626.527"] ;
494 -> 496 ;
497 [label="mse = 946405.313\nsamples = 0.1%\nvalue = 47483.547"] ;
496 -> 497 ;
498 [label="mse = 1236121.226\nsamples = 0.1%\nvalue = 45769.507"] ;
496 -> 498 ;
499 [label="Fractime-week <= 64.913\nmse = 49585469.643\nsamples = 2.1%\nvalue = 32854.644"] ;
249 -> 499 ;
500 [label="Fractime-week <= 63.781\nmse = 16997411.399\nsamples = 1.0%\nvalue = 39065.558"] ;
499 -> 500 ;
501 [label="Fractime-week <= 63.318\nmse = 3841895.291\nsamples = 0.4%\nvalue = 43144.4"] ;
500 -> 501 ;
502 [label="mse = 1564465.926\nsamples = 0.1%\nvalue = 44704.023"] ;
501 -> 502 ;
503 [label="Fractime-week <= 63.554\nmse = 3156293.911\nsamples = 0.3%\nvalue = 42364.589"] ;
501 -> 503 ;
504 [label="mse = 1931439.415\nsamples = 0.1%\nvalue = 43638.538"] ;
503 -> 504 ;
505 [label="mse = 1135257.167\nsamples = 0.1%\nvalue = 41090.64"] ;
503 -> 505 ;
506 [label="Fractime-week <= 64.739\nmse = 5028046.483\nsamples = 0.6%\nvalue = 36006.426"] ;
500 -> 506 ;
507 [label="Fractime-week <= 64.146\nmse = 1859189.274\nsamples = 0.4%\nvalue = 37106.655"] ;
506 -> 507 ;
508 [label="mse = 549387.211\nsamples = 0.1%\nvalue = 38542.743"] ;
507 -> 508 ;
509 [label="Fractime-week <= 64.451\nmse = 967329.24\nsamples = 0.3%\nvalue = 36388.611"] ;
507 -> 509 ;
510 [label="mse = 482859.854\nsamples = 0.1%\nvalue = 37106.655"] ;
509 -> 510 ;
511 [label="mse = 420624.584\nsamples = 0.1%\nvalue = 35670.567"] ;
509 -> 511 ;
512 [label="mse = 8584.175\nsamples = 0.1%\nvalue = 32705.741"] ;
506 -> 512 ;
513 [label="Fractime-week <= 65.998\nmse = 5022618.416\nsamples = 1.0%\nvalue = 26643.73"] ;
499 -> 513 ;
514 [label="Fractime-week <= 65.597\nmse = 1887311.39\nsamples = 0.6%\nvalue = 28246.92"] ;
513 -> 514 ;
515 [label="Fractime-week <= 65.091\nmse = 777583.202\nsamples = 0.4%\nvalue = 28860.732"] ;
514 -> 515 ;
516 [label="mse = 214604.379\nsamples = 0.1%\nvalue = 29740.914"] ;
515 -> 516 ;
517 [label="Fractime-week <= 65.307\nmse = 478031.255\nsamples = 0.3%\nvalue = 28420.64"] ;
515 -> 517 ;
518 [label="mse = 259671.299\nsamples = 0.1%\nvalue = 28860.732"] ;
517 -> 518 ;
519 [label="mse = 309030.306\nsamples = 0.1%\nvalue = 27980.549"] ;
517 -> 519 ;
520 [label="mse = 695318.189\nsamples = 0.1%\nvalue = 26405.485"] ;
514 -> 520 ;
521 [label="Fractime-week <= 66.429\nmse = 1206791.961\nsamples = 0.4%\nvalue = 24506.143"] ;
513 -> 521 ;
522 [label="Fractime-week <= 66.121\nmse = 1211978.233\nsamples = 0.3%\nvalue = 24668.282"] ;
521 -> 522 ;
523 [label="mse = 1236121.226\nsamples = 0.1%\nvalue = 24830.421"] ;
522 -> 523 ;
524 [label="mse = 1135257.167\nsamples = 0.1%\nvalue = 24506.143"] ;
522 -> 524 ;
525 [label="mse = 1038685.197\nsamples = 0.1%\nvalue = 24181.865"] ;
521 -> 525 ;
526 [label="Fractime-week <= 95.523\nmse = 91147919.876\nsamples = 22.3%\nvalue = 29174.03"] ;
2 -> 526 ;
527 [label="Fractime-week <= 92.805\nmse = 103101184.843\nsamples = 17.3%\nvalue = 30463.042"] ;
526 -> 527 ;
528 [label="Fractime-week <= 72.262\nmse = 106724050.557\nsamples = 15.6%\nvalue = 31284.478"] ;
527 -> 528 ;
529 [label="Fractime-week <= 71.542\nmse = 1883936.554\nsamples = 3.4%\nvalue = 22930.892"] ;
528 -> 529 ;
530 [label="Fractime-week <= 71.125\nmse = 1845428.422\nsamples = 3.0%\nvalue = 23135.278"] ;
529 -> 530 ;
531 [label="Fractime-week <= 67.777\nmse = 1769932.145\nsamples = 2.7%\nvalue = 23302.428"] ;
530 -> 531 ;
532 [label="Fractime-week <= 66.848\nmse = 3067730.807\nsamples = 0.7%\nvalue = 23838.43"] ;
531 -> 532 ;
533 [label="mse = 1038685.197\nsamples = 0.1%\nvalue = 23811.262"] ;
532 -> 533 ;
534 [label="Fractime-week <= 67.305\nmse = 3574761.547\nsamples = 0.6%\nvalue = 23845.222"] ;
532 -> 534 ;
535 [label="Fractime-week <= 67.04\nmse = 3345703.1\nsamples = 0.3%\nvalue = 23961.973"] ;
534 -> 535 ;
536 [label="mse = 2868309.889\nsamples = 0.1%\nvalue = 24115.108"] ;
535 -> 536 ;
537 [label="mse = 3776195.69\nsamples = 0.1%\nvalue = 23808.838"] ;
535 -> 537 ;
538 [label="Fractime-week <= 67.736\nmse = 3776558.519\nsamples = 0.3%\nvalue = 23728.471"] ;
534 -> 538 ;
539 [label="mse = 4808716.817\nsamples = 0.1%\nvalue = 23502.568"] ;
538 -> 539 ;
540 [label="mse = 2642335.595\nsamples = 0.1%\nvalue = 23954.375"] ;
538 -> 540 ;
541 [label="Fractime-week <= 68.964\nmse = 1117779.79\nsamples = 1.9%\nvalue = 23096.274"] ;
531 -> 541 ;
542 [label="Fractime-week <= 68.257\nmse = 961805.769\nsamples = 0.6%\nvalue = 24103.711"] ;
541 -> 542 ;
543 [label="Fractime-week <= 68.212\nmse = 1059795.014\nsamples = 0.3%\nvalue = 24326.016"] ;
542 -> 543 ;
544 [label="mse = 1144805.904\nsamples = 0.1%\nvalue = 24417.964"] ;
543 -> 544 ;
545 [label="mse = 957875.288\nsamples = 0.1%\nvalue = 24234.068"] ;
543 -> 545 ;
546 [label="Fractime-week <= 68.666\nmse = 764977.43\nsamples = 0.3%\nvalue = 23881.406"] ;
542 -> 546 ;
547 [label="mse = 787595.971\nsamples = 0.1%\nvalue = 24050.172"] ;
546 -> 547 ;
548 [label="mse = 685394.68\nsamples = 0.1%\nvalue = 23712.639"] ;
546 -> 548 ;
549 [label="Fractime-week <= 69.178\nmse = 535541.792\nsamples = 1.3%\nvalue = 22648.524"] ;
541 -> 549 ;
550 [label="mse = 588648.302\nsamples = 0.1%\nvalue = 23374.035"] ;
549 -> 550 ;
551 [label="Fractime-week <= 70.047\nmse = 454883.11\nsamples = 1.2%\nvalue = 22557.835"] ;
549 -> 551 ;
552 [label="Fractime-week <= 69.556\nmse = 500189.349\nsamples = 0.6%\nvalue = 22904.462"] ;
551 -> 552 ;
553 [label="Fractime-week <= 69.44\nmse = 737139.451\nsamples = 0.3%\nvalue = 22894.045"] ;
552 -> 553 ;
554 [label="mse = 668868.862\nsamples = 0.1%\nvalue = 23054.042"] ;
553 -> 554 ;
555 [label="mse = 754212.135\nsamples = 0.1%\nvalue = 22734.048"] ;
553 -> 555 ;
556 [label="Fractime-week <= 69.771\nmse = 263022.233\nsamples = 0.3%\nvalue = 22914.878"] ;
552 -> 556 ;
557 [label="mse = 385509.468\nsamples = 0.1%\nvalue = 22857.092"] ;
556 -> 557 ;
558 [label="mse = 133856.423\nsamples = 0.1%\nvalue = 22972.665"] ;
556 -> 558 ;
559 [label="Fractime-week <= 70.669\nmse = 169276.269\nsamples = 0.6%\nvalue = 22211.208"] ;
551 -> 559 ;
560 [label="Fractime-week <= 70.438\nmse = 123235.38\nsamples = 0.3%\nvalue = 22503.72"] ;
559 -> 560 ;
561 [label="mse = 109684.458\nsamples = 0.1%\nvalue = 22660.035"] ;
560 -> 561 ;
562 [label="mse = 87917.552\nsamples = 0.1%\nvalue = 22347.405"] ;
560 -> 562 ;
563 [label="Fractime-week <= 70.923\nmse = 44190.194\nsamples = 0.3%\nvalue = 21918.695"] ;
559 -> 563 ;
564 [label="mse = 38417.606\nsamples = 0.1%\nvalue = 22061.599"] ;
563 -> 564 ;
565 [label="mse = 9120.107\nsamples = 0.1%\nvalue = 21775.792"] ;
563 -> 565 ;
566 [label="Fractime-week <= 71.463\nmse = 10365.4\nsamples = 0.3%\nvalue = 21630.925"] ;
530 -> 566 ;
567 [label="mse = 8385.475\nsamples = 0.1%\nvalue = 21679.214"] ;
566 -> 567 ;
568 [label="mse = 7681.686\nsamples = 0.1%\nvalue = 21582.636"] ;
566 -> 568 ;
569 [label="Fractime-week <= 71.858\nmse = 5566.97\nsamples = 0.4%\nvalue = 21568.321"] ;
529 -> 569 ;
570 [label="mse = 7008.74\nsamples = 0.1%\nvalue = 21578.709"] ;
569 -> 570 ;
571 [label="Fractime-week <= 72.19\nmse = 4765.145\nsamples = 0.3%\nvalue = 21563.127"] ;
569 -> 571 ;
572 [label="mse = 5771.137\nsamples = 0.1%\nvalue = 21570.959"] ;
571 -> 572 ;
573 [label="mse = 3636.458\nsamples = 0.1%\nvalue = 21555.294"] ;
571 -> 573 ;
574 [label="Fractime-week <= 75.976\nmse = 111067295.948\nsamples = 12.2%\nvalue = 33627.556"] ;
528 -> 574 ;
575 [label="Fractime-week <= 74.394\nmse = 50385.703\nsamples = 2.1%\nvalue = 21389.124"] ;
574 -> 575 ;
576 [label="Fractime-week <= 73.343\nmse = 63958.678\nsamples = 1.2%\nvalue = 21316.521"] ;
575 -> 576 ;
577 [label="Fractime-week <= 73.173\nmse = 29965.844\nsamples = 0.6%\nvalue = 21395.381"] ;
576 -> 577 ;
578 [label="Fractime-week <= 72.768\nmse = 25349.687\nsamples = 0.4%\nvalue = 21424.708"] ;
577 -> 578 ;
579 [label="Fractime-week <= 72.553\nmse = 10938.485\nsamples = 0.3%\nvalue = 21482.392"] ;
578 -> 579 ;
580 [label="mse = 1992.56\nsamples = 0.1%\nvalue = 21539.629"] ;
579 -> 580 ;
581 [label="mse = 13332.189\nsamples = 0.1%\nvalue = 21425.155"] ;
579 -> 581 ;
582 [label="mse = 34207.692\nsamples = 0.1%\nvalue = 21309.341"] ;
578 -> 582 ;
583 [label="mse = 33493.331\nsamples = 0.1%\nvalue = 21307.4"] ;
577 -> 583 ;
584 [label="Fractime-week <= 73.845\nmse = 85513.615\nsamples = 0.6%\nvalue = 21237.661"] ;
576 -> 584 ;
585 [label="Fractime-week <= 73.72\nmse = 56879.588\nsamples = 0.3%\nvalue = 21261.041"] ;
584 -> 585 ;
586 [label="mse = 32786.508\nsamples = 0.1%\nvalue = 21305.458"] ;
585 -> 586 ;
587 [label="mse = 77026.84\nsamples = 0.1%\nvalue = 21216.623"] ;
585 -> 587 ;
588 [label="Fractime-week <= 74.118\nmse = 113054.368\nsamples = 0.3%\nvalue = 21214.28"] ;
584 -> 588 ;
589 [label="mse = 150280.559\nsamples = 0.1%\nvalue = 21141.445"] ;
588 -> 589 ;
590 [label="mse = 65218.206\nsamples = 0.1%\nvalue = 21287.116"] ;
588 -> 590 ;
591 [label="Fractime-week <= 74.736\nmse = 15888.938\nsamples = 0.9%\nvalue = 21485.929"] ;
575 -> 591 ;
592 [label="mse = 15152.808\nsamples = 0.1%\nvalue = 21432.786"] ;
591 -> 592 ;
593 [label="Fractime-week <= 75.268\nmse = 15358.373\nsamples = 0.7%\nvalue = 21496.557"] ;
591 -> 593 ;
594 [label="Fractime-week <= 75.177\nmse = 19321.227\nsamples = 0.4%\nvalue = 21475.452"] ;
593 -> 594 ;
595 [label="Fractime-week <= 74.872\nmse = 23035.012\nsamples = 0.3%\nvalue = 21460.602"] ;
594 -> 595 ;
596 [label="mse = 19459.714\nsamples = 0.1%\nvalue = 21449.188"] ;
595 -> 596 ;
597 [label="mse = 26349.751\nsamples = 0.1%\nvalue = 21472.016"] ;
595 -> 597 ;
598 [label="mse = 10570.438\nsamples = 0.1%\nvalue = 21505.153"] ;
594 -> 598 ;
599 [label="Fractime-week <= 75.652\nmse = 7743.718\nsamples = 0.3%\nvalue = 21528.215"] ;
593 -> 599 ;
600 [label="mse = 1874.822\nsamples = 0.1%\nvalue = 21538.29"] ;
599 -> 600 ;
601 [label="mse = 13409.598\nsamples = 0.1%\nvalue = 21518.14"] ;
599 -> 601 ;
602 [label="Fractime-week <= 89.712\nmse = 96738046.344\nsamples = 10.1%\nvalue = 36147.234"] ;
574 -> 602 ;
603 [label="Fractime-week <= 81.882\nmse = 83267619.458\nsamples = 8.2%\nvalue = 38763.285"] ;
602 -> 603 ;
604 [label="Fractime-week <= 78.404\nmse = 74532876.316\nsamples = 3.6%\nvalue = 32626.585"] ;
603 -> 604 ;
605 [label="Fractime-week <= 77.326\nmse = 6572121.549\nsamples = 1.5%\nvalue = 24272.496"] ;
604 -> 605 ;
606 [label="Fractime-week <= 76.275\nmse = 1507964.941\nsamples = 0.9%\nvalue = 22566.131"] ;
605 -> 606 ;
607 [label="Fractime-week <= 76.241\nmse = 41817.808\nsamples = 0.3%\nvalue = 21509.887"] ;
606 -> 607 ;
608 [label="mse = 29142.411\nsamples = 0.1%\nvalue = 21480.401"] ;
607 -> 608 ;
609 [label="mse = 52754.374\nsamples = 0.1%\nvalue = 21539.373"] ;
607 -> 609 ;
610 [label="Fractime-week <= 76.904\nmse = 1404300.287\nsamples = 0.6%\nvalue = 23094.253"] ;
606 -> 610 ;
611 [label="Fractime-week <= 76.66\nmse = 365326.006\nsamples = 0.3%\nvalue = 22102.999"] ;
610 -> 611 ;
612 [label="mse = 83321.663\nsamples = 0.1%\nvalue = 21598.344"] ;
611 -> 612 ;
613 [label="mse = 137978.771\nsamples = 0.1%\nvalue = 22607.653"] ;
611 -> 613 ;
614 [label="Fractime-week <= 77.015\nmse = 478105.61\nsamples = 0.3%\nvalue = 24085.507"] ;
610 -> 614 ;
615 [label="mse = 206347.565\nsamples = 0.1%\nvalue = 23616.961"] ;
614 -> 615 ;
616 [label="mse = 310793.696\nsamples = 0.1%\nvalue = 24554.052"] ;
614 -> 616 ;
617 [label="Fractime-week <= 78.25\nmse = 3249552.646\nsamples = 0.6%\nvalue = 26832.043"] ;
605 -> 617 ;
618 [label="Fractime-week <= 77.756\nmse = 2048123.249\nsamples = 0.4%\nvalue = 26561.075"] ;
617 -> 618 ;
619 [label="Fractime-week <= 77.748\nmse = 1097072.151\nsamples = 0.3%\nvalue = 26028.312"] ;
618 -> 619 ;
620 [label="mse = 436554.255\nsamples = 0.1%\nvalue = 25491.143"] ;
619 -> 620 ;
621 [label="mse = 1180490.173\nsamples = 0.1%\nvalue = 26565.48"] ;
619 -> 621 ;
622 [label="mse = 2247206.632\nsamples = 0.1%\nvalue = 27626.601"] ;
618 -> 622 ;
623 [label="mse = 5972757.284\nsamples = 0.1%\nvalue = 27644.947"] ;
617 -> 623 ;
624 [label="Fractime-week <= 81.708\nmse = 37618135.17\nsamples = 2.1%\nvalue = 38593.792"] ;
604 -> 624 ;
625 [label="Fractime-week <= 79.191\nmse = 36000793.719\nsamples = 1.9%\nvalue = 38027.654"] ;
624 -> 625 ;
626 [label="Fractime-week <= 78.541\nmse = 12695048.673\nsamples = 0.4%\nvalue = 30023.91"] ;
625 -> 626 ;
627 [label="mse = 11429303.524\nsamples = 0.1%\nvalue = 27655.241"] ;
626 -> 627 ;
628 [label="Fractime-week <= 78.793\nmse = 9119977.036\nsamples = 0.3%\nvalue = 31208.244"] ;
626 -> 628 ;
629 [label="mse = 8721974.216\nsamples = 0.1%\nvalue = 30007.339"] ;
628 -> 629 ;
630 [label="mse = 6633634.06\nsamples = 0.1%\nvalue = 32409.15"] ;
628 -> 630 ;
631 [label="Fractime-week <= 79.383\nmse = 18009148.871\nsamples = 1.5%\nvalue = 40428.777"] ;
625 -> 631 ;
632 [label="mse = 6542494.539\nsamples = 0.1%\nvalue = 33595.856"] ;
631 -> 632 ;
633 [label="Fractime-week <= 81.257\nmse = 13519170.6\nsamples = 1.3%\nvalue = 41187.991"] ;
631 -> 633 ;
634 [label="Fractime-week <= 80.681\nmse = 13114029.14\nsamples = 1.2%\nvalue = 40705.521"] ;
633 -> 634 ;
635 [label="Fractime-week <= 79.837\nmse = 9501146.883\nsamples = 0.7%\nvalue = 38662.879"] ;
634 -> 635 ;
636 [label="Fractime-week <= 79.594\nmse = 6221203.569\nsamples = 0.3%\nvalue = 35856.629"] ;
635 -> 636 ;
637 [label="mse = 6386122.376\nsamples = 0.1%\nvalue = 34769.565"] ;
636 -> 637 ;
638 [label="mse = 3692864.806\nsamples = 0.1%\nvalue = 36943.694"] ;
636 -> 638 ;
639 [label="Fractime-week <= 80.246\nmse = 2937736.323\nsamples = 0.4%\nvalue = 40533.712"] ;
635 -> 639 ;
640 [label="mse = 1680541.672\nsamples = 0.1%\nvalue = 39097.893"] ;
639 -> 640 ;
641 [label="Fractime-week <= 80.37\nmse = 2020152.709\nsamples = 0.3%\nvalue = 41251.621"] ;
639 -> 641 ;
642 [label="mse = 1561905.886\nsamples = 0.1%\nvalue = 40533.712"] ;
641 -> 642 ;
643 [label="mse = 1447612.24\nsamples = 0.1%\nvalue = 41969.53"] ;
641 -> 643 ;
644 [label="Fractime-week <= 80.762\nmse = 591549.067\nsamples = 0.4%\nvalue = 44109.926"] ;
634 -> 644 ;
645 [label="mse = 444967.277\nsamples = 0.1%\nvalue = 43193.787"] ;
644 -> 645 ;
646 [label="Fractime-week <= 81.242\nmse = 35357.114\nsamples = 0.3%\nvalue = 44567.995"] ;
644 -> 646 ;
647 [label="mse = 14637.229\nsamples = 0.1%\nvalue = 44408.078"] ;
646 -> 647 ;
648 [label="mse = 4930.146\nsamples = 0.1%\nvalue = 44727.912"] ;
646 -> 648 ;
649 [label="mse = 378.13\nsamples = 0.1%\nvalue = 45047.746"] ;
633 -> 649 ;
650 [label="mse = 310394.657\nsamples = 0.1%\nvalue = 45953.583"] ;
624 -> 650 ;
651 [label="Fractime-week <= 83.275\nmse = 38302636.62\nsamples = 4.6%\nvalue = 43514.279"] ;
603 -> 651 ;
652 [label="Fractime-week <= 82.658\nmse = 4077288.053\nsamples = 0.9%\nvalue = 47680.748"] ;
651 -> 652 ;
653 [label="Fractime-week <= 82.079\nmse = 3208228.098\nsamples = 0.4%\nvalue = 47432.831"] ;
652 -> 653 ;
654 [label="mse = 1276756.211\nsamples = 0.1%\nvalue = 46863.19"] ;
653 -> 654 ;
655 [label="Fractime-week <= 82.43\nmse = 3930595.917\nsamples = 0.3%\nvalue = 47717.652"] ;
653 -> 655 ;
656 [label="mse = 2795936.118\nsamples = 0.1%\nvalue = 47432.831"] ;
655 -> 656 ;
657 [label="mse = 4903010.301\nsamples = 0.1%\nvalue = 48002.472"] ;
655 -> 657 ;
658 [label="Fractime-week <= 82.781\nmse = 4823422.942\nsamples = 0.4%\nvalue = 47928.664"] ;
652 -> 658 ;
659 [label="mse = 4813370.592\nsamples = 0.1%\nvalue = 47930.156"] ;
658 -> 659 ;
660 [label="Fractime-week <= 83.061\nmse = 4828447.447\nsamples = 0.3%\nvalue = 47927.918"] ;
658 -> 660 ;
661 [label="mse = 4716505.452\nsamples = 0.1%\nvalue = 47859.693"] ;
660 -> 661 ;
662 [label="mse = 4931080.169\nsamples = 0.1%\nvalue = 47996.143"] ;
660 -> 662 ;
663 [label="Fractime-week <= 83.96\nmse = 41350544.108\nsamples = 3.7%\nvalue = 42514.326"] ;
651 -> 663 ;
664 [label="Fractime-week <= 83.652\nmse = 4970635.675\nsamples = 0.3%\nvalue = 47903.728"] ;
663 -> 664 ;
665 [label="mse = 5419272.402\nsamples = 0.1%\nvalue = 48074.115"] ;
664 -> 665 ;
666 [label="mse = 4463935.291\nsamples = 0.1%\nvalue = 47733.341"] ;
664 -> 666 ;
667 [label="Fractime-week <= 84.04\nmse = 41768679.013\nsamples = 3.4%\nvalue = 42045.683"] ;
663 -> 667 ;
668 [label="mse = 3601160.328\nsamples = 0.1%\nvalue = 47392.566"] ;
667 -> 668 ;
669 [label="Fractime-week <= 85.614\nmse = 42144990.425\nsamples = 3.3%\nvalue = 41802.643"] ;
667 -> 669 ;
670 [label="Fractime-week <= 84.452\nmse = 8916021.299\nsamples = 0.9%\nvalue = 47111.921"] ;
669 -> 670 ;
671 [label="mse = 4823421.168\nsamples = 0.1%\nvalue = 47279.311"] ;
670 -> 671 ;
672 [label="Fractime-week <= 84.941\nmse = 9727816.623\nsamples = 0.7%\nvalue = 47078.442"] ;
670 -> 672 ;
673 [label="Fractime-week <= 84.607\nmse = 7471360.181\nsamples = 0.3%\nvalue = 47118.52"] ;
672 -> 673 ;
674 [label="mse = 6505163.462\nsamples = 0.1%\nvalue = 47110.319"] ;
673 -> 674 ;
675 [label="mse = 8437422.398\nsamples = 0.1%\nvalue = 47126.721"] ;
673 -> 675 ;
676 [label="Fractime-week <= 85.127\nmse = 11230336.234\nsamples = 0.4%\nvalue = 47051.724"] ;
672 -> 676 ;
677 [label="mse = 10792180.08\nsamples = 0.1%\nvalue = 47116.903"] ;
676 -> 677 ;
678 [label="Fractime-week <= 85.386\nmse = 11446228.106\nsamples = 0.3%\nvalue = 47019.135"] ;
676 -> 678 ;
679 [label="mse = 11224671.87\nsamples = 0.1%\nvalue = 47051.724"] ;
678 -> 679 ;
680 [label="mse = 11665660.206\nsamples = 0.1%\nvalue = 46986.545"] ;
678 -> 680 ;
681 [label="Fractime-week <= 87.91\nmse = 40071193.211\nsamples = 2.4%\nvalue = 39811.663"] ;
669 -> 681 ;
682 [label="Fractime-week <= 86.228\nmse = 11871276.698\nsamples = 1.3%\nvalue = 44394.323"] ;
681 -> 682 ;
683 [label="Fractime-week <= 85.916\nmse = 11805499.869\nsamples = 0.3%\nvalue = 46689.504"] ;
682 -> 683 ;
684 [label="mse = 11778621.364\nsamples = 0.1%\nvalue = 46784.747"] ;
683 -> 684 ;
685 [label="mse = 11814235.854\nsamples = 0.1%\nvalue = 46594.261"] ;
683 -> 685 ;
686 [label="Fractime-week <= 87.049\nmse = 9954940.018\nsamples = 1.0%\nvalue = 43738.557"] ;
682 -> 686 ;
687 [label="Fractime-week <= 86.61\nmse = 9481376.276\nsamples = 0.6%\nvalue = 45050.721"] ;
686 -> 687 ;
688 [label="Fractime-week <= 86.401\nmse = 10717708.059\nsamples = 0.3%\nvalue = 45931.869"] ;
687 -> 688 ;
689 [label="mse = 11026009.444\nsamples = 0.1%\nvalue = 46154.996"] ;
688 -> 689 ;
690 [label="mse = 10309835.095\nsamples = 0.1%\nvalue = 45708.742"] ;
688 -> 690 ;
691 [label="Fractime-week <= 86.789\nmse = 6692201.107\nsamples = 0.3%\nvalue = 44169.573"] ;
687 -> 691 ;
692 [label="mse = 7648095.652\nsamples = 0.1%\nvalue = 44671.703"] ;
691 -> 692 ;
693 [label="mse = 5232038.416\nsamples = 0.1%\nvalue = 43667.444"] ;
691 -> 693 ;
694 [label="Fractime-week <= 87.62\nmse = 5229727.743\nsamples = 0.4%\nvalue = 41989.005"] ;
686 -> 694 ;
695 [label="Fractime-week <= 87.365\nmse = 5123319.425\nsamples = 0.3%\nvalue = 42607.344"] ;
694 -> 695 ;
696 [label="mse = 5075521.464\nsamples = 0.1%\nvalue = 42960.71"] ;
695 -> 696 ;
697 [label="mse = 4921381.307\nsamples = 0.1%\nvalue = 42253.977"] ;
695 -> 697 ;
698 [label="mse = 3148492.018\nsamples = 0.1%\nvalue = 40752.329"] ;
694 -> 698 ;
699 [label="Fractime-week <= 89.271\nmse = 14611677.148\nsamples = 1.0%\nvalue = 33919.672"] ;
681 -> 699 ;
700 [label="Fractime-week <= 88.655\nmse = 11964599.148\nsamples = 0.9%\nvalue = 34745.785"] ;
699 -> 700 ;
701 [label="Fractime-week <= 88.484\nmse = 2490162.162\nsamples = 0.4%\nvalue = 37763.075"] ;
700 -> 701 ;
702 [label="Fractime-week <= 88.241\nmse = 1905888.921\nsamples = 0.3%\nvalue = 38505.09"] ;
701 -> 702 ;
703 [label="mse = 1779440.534\nsamples = 0.1%\nvalue = 39247.104"] ;
702 -> 703 ;
704 [label="mse = 931165.997\nsamples = 0.1%\nvalue = 37763.075"] ;
702 -> 704 ;
705 [label="mse = 355194.705\nsamples = 0.1%\nvalue = 36279.046"] ;
701 -> 705 ;
706 [label="Fractime-week <= 89.092\nmse = 3230954.089\nsamples = 0.4%\nvalue = 31728.494"] ;
700 -> 706 ;
707 [label="Fractime-week <= 88.876\nmse = 2172940.484\nsamples = 0.3%\nvalue = 32531.67"] ;
706 -> 707 ;
708 [label="mse = 58783.92\nsamples = 0.1%\nvalue = 33782.052"] ;
707 -> 708 ;
709 [label="mse = 1160186.141\nsamples = 0.1%\nvalue = 31281.288"] ;
707 -> 709 ;
710 [label="mse = 1476433.03\nsamples = 0.1%\nvalue = 30122.143"] ;
706 -> 710 ;
711 [label="mse = 1830749.283\nsamples = 0.1%\nvalue = 28962.997"] ;
699 -> 711 ;
712 [label="Fractime-week <= 91.159\nmse = 2275454.988\nsamples = 1.9%\nvalue = 25079.324"] ;
602 -> 712 ;
713 [label="Fractime-week <= 90.93\nmse = 3168130.319\nsamples = 0.9%\nvalue = 25767.562"] ;
712 -> 713 ;
714 [label="Fractime-week <= 90.057\nmse = 3146327.521\nsamples = 0.7%\nvalue = 26026.584"] ;
713 -> 714 ;
715 [label="Fractime-week <= 89.991\nmse = 2945049.001\nsamples = 0.3%\nvalue = 26964.177"] ;
714 -> 715 ;
716 [label="mse = 2273656.086\nsamples = 0.1%\nvalue = 27635.397"] ;
715 -> 716 ;
717 [label="mse = 2715369.0\nsamples = 0.1%\nvalue = 26292.957"] ;
715 -> 717 ;
718 [label="Fractime-week <= 90.613\nmse = 2303755.991\nsamples = 0.4%\nvalue = 25401.521"] ;
714 -> 718 ;
719 [label="Fractime-week <= 90.297\nmse = 2432368.834\nsamples = 0.3%\nvalue = 25632.151"] ;
718 -> 719 ;
720 [label="mse = 2501826.228\nsamples = 0.1%\nvalue = 25856.232"] ;
719 -> 720 ;
721 [label="mse = 2262486.325\nsamples = 0.1%\nvalue = 25408.069"] ;
719 -> 721 ;
722 [label="mse = 1727391.046\nsamples = 0.1%\nvalue = 24940.263"] ;
718 -> 722 ;
723 [label="mse = 1264384.74\nsamples = 0.1%\nvalue = 24472.456"] ;
713 -> 723 ;
724 [label="Fractime-week <= 91.495\nmse = 756295.251\nsamples = 1.0%\nvalue = 24489.405"] ;
712 -> 724 ;
725 [label="mse = 1632134.278\nsamples = 0.1%\nvalue = 24254.954"] ;
724 -> 725 ;
726 [label="Fractime-week <= 91.944\nmse = 599634.077\nsamples = 0.9%\nvalue = 24528.48"] ;
724 -> 726 ;
727 [label="Fractime-week <= 91.709\nmse = 1463186.781\nsamples = 0.3%\nvalue = 24270.686"] ;
726 -> 727 ;
728 [label="mse = 2046763.937\nsamples = 0.1%\nvalue = 24037.453"] ;
727 -> 728 ;
729 [label="mse = 770813.687\nsamples = 0.1%\nvalue = 24503.92"] ;
727 -> 729 ;
730 [label="Fractime-week <= 92.253\nmse = 118014.697\nsamples = 0.6%\nvalue = 24657.376"] ;
726 -> 730 ;
731 [label="Fractime-week <= 92.152\nmse = 84927.55\nsamples = 0.3%\nvalue = 24873.912"] ;
730 -> 731 ;
732 [label="mse = 99759.588\nsamples = 0.1%\nvalue = 24960.967"] ;
731 -> 732 ;
733 [label="mse = 54938.674\nsamples = 0.1%\nvalue = 24786.858"] ;
731 -> 733 ;
734 [label="Fractime-week <= 92.564\nmse = 57325.978\nsamples = 0.3%\nvalue = 24440.84"] ;
730 -> 734 ;
735 [label="mse = 23320.646\nsamples = 0.1%\nvalue = 24612.529"] ;
734 -> 735 ;
736 [label="mse = 32377.442\nsamples = 0.1%\nvalue = 24269.152"] ;
734 -> 736 ;
737 [label="Fractime-week <= 95.053\nmse = 597501.622\nsamples = 1.6%\nvalue = 22622.065"] ;
527 -> 737 ;
738 [label="Fractime-week <= 94.755\nmse = 484416.181\nsamples = 1.3%\nvalue = 22832.276"] ;
737 -> 738 ;
739 [label="Fractime-week <= 93.534\nmse = 437063.706\nsamples = 1.2%\nvalue = 22941.252"] ;
738 -> 739 ;
740 [label="Fractime-week <= 93.185\nmse = 335237.283\nsamples = 0.4%\nvalue = 23484.101"] ;
739 -> 740 ;
741 [label="mse = 49192.021\nsamples = 0.1%\nvalue = 23940.404"] ;
740 -> 741 ;
742 [label="Fractime-week <= 93.308\nmse = 322100.903\nsamples = 0.3%\nvalue = 23255.95"] ;
740 -> 742 ;
743 [label="mse = 173080.231\nsamples = 0.1%\nvalue = 23486.084"] ;
742 -> 743 ;
744 [label="mse = 365197.863\nsamples = 0.1%\nvalue = 23025.815"] ;
742 -> 744 ;
745 [label="Fractime-week <= 93.951\nmse = 215261.986\nsamples = 0.7%\nvalue = 22615.543"] ;
739 -> 745 ;
746 [label="mse = 222826.281\nsamples = 0.1%\nvalue = 22986.195"] ;
745 -> 746 ;
747 [label="Fractime-week <= 94.055\nmse = 170438.711\nsamples = 0.6%\nvalue = 22522.88"] ;
745 -> 747 ;
748 [label="mse = 117591.012\nsamples = 0.1%\nvalue = 22949.717"] ;
747 -> 748 ;
749 [label="Fractime-week <= 94.574\nmse = 107081.459\nsamples = 0.4%\nvalue = 22380.601"] ;
747 -> 749 ;
750 [label="Fractime-week <= 94.356\nmse = 116658.547\nsamples = 0.3%\nvalue = 22494.191"] ;
749 -> 750 ;
751 [label="mse = 102181.597\nsamples = 0.1%\nvalue = 22648.507"] ;
750 -> 751 ;
752 [label="mse = 83508.363\nsamples = 0.1%\nvalue = 22339.874"] ;
750 -> 752 ;
753 [label="mse = 10511.401\nsamples = 0.1%\nvalue = 22153.421"] ;
749 -> 753 ;
754 [label="mse = 8177.53\nsamples = 0.1%\nvalue = 21960.466"] ;
738 -> 754 ;
755 [label="Fractime-week <= 95.351\nmse = 12713.296\nsamples = 0.3%\nvalue = 21676.114"] ;
737 -> 755 ;
756 [label="mse = 4.185\nsamples = 0.1%\nvalue = 21770.898"] ;
755 -> 756 ;
757 [label="mse = 7454.306\nsamples = 0.1%\nvalue = 21581.329"] ;
755 -> 757 ;
758 [label="Fractime-week <= 99.851\nmse = 25356667.695\nsamples = 5.1%\nvalue = 24776.224"] ;
526 -> 758 ;
759 [label="Fractime-week <= 98.154\nmse = 12443.187\nsamples = 2.5%\nvalue = 21490.647"] ;
758 -> 759 ;
760 [label="Fractime-week <= 96.24\nmse = 12468.707\nsamples = 1.5%\nvalue = 21477.457"] ;
759 -> 760 ;
761 [label="Fractime-week <= 95.858\nmse = 5334.303\nsamples = 0.3%\nvalue = 21567.886"] ;
760 -> 761 ;
762 [label="mse = 5792.963\nsamples = 0.1%\nvalue = 21571.103"] ;
761 -> 762 ;
763 [label="mse = 4854.944\nsamples = 0.1%\nvalue = 21564.669"] ;
761 -> 763 ;
764 [label="Fractime-week <= 96.983\nmse = 11696.908\nsamples = 1.2%\nvalue = 21454.85"] ;
760 -> 764 ;
765 [label="Fractime-week <= 96.721\nmse = 20538.963\nsamples = 0.4%\nvalue = 21479.784"] ;
764 -> 765 ;
766 [label="Fractime-week <= 96.398\nmse = 20299.007\nsamples = 0.3%\nvalue = 21494.673"] ;
765 -> 766 ;
767 [label="mse = 13378.208\nsamples = 0.1%\nvalue = 21518.005"] ;
766 -> 767 ;
768 [label="mse = 26131.04\nsamples = 0.1%\nvalue = 21471.34"] ;
766 -> 768 ;
769 [label="mse = 19688.835\nsamples = 0.1%\nvalue = 21450.006"] ;
765 -> 769 ;
770 [label="Fractime-week <= 97.436\nmse = 5794.859\nsamples = 0.7%\nvalue = 21439.89"] ;
764 -> 770 ;
771 [label="Fractime-week <= 97.117\nmse = 7548.042\nsamples = 0.3%\nvalue = 21436.33"] ;
770 -> 771 ;
772 [label="mse = 11444.519\nsamples = 0.1%\nvalue = 21416.669"] ;
771 -> 772 ;
773 [label="mse = 2878.426\nsamples = 0.1%\nvalue = 21455.991"] ;
771 -> 773 ;
774 [label="Fractime-week <= 97.86\nmse = 4611.987\nsamples = 0.4%\nvalue = 21442.264"] ;
770 -> 774 ;
775 [label="Fractime-week <= 97.742\nmse = 1603.122\nsamples = 0.3%\nvalue = 21471.68"] ;
774 -> 775 ;
776 [label="mse = 0.104\nsamples = 0.1%\nvalue = 21495.314"] ;
775 -> 776 ;
777 [label="mse = 2089.004\nsamples = 0.1%\nvalue = 21448.046"] ;
775 -> 777 ;
778 [label="mse = 5437.744\nsamples = 0.1%\nvalue = 21383.431"] ;
774 -> 778 ;
779 [label="Fractime-week <= 98.328\nmse = 11803.213\nsamples = 1.0%\nvalue = 21509.488"] ;
759 -> 779 ;
780 [label="mse = 6982.525\nsamples = 0.1%\nvalue = 21393.251"] ;
779 -> 780 ;
781 [label="Fractime-week <= 99.726\nmse = 9979.504\nsamples = 0.9%\nvalue = 21528.861"] ;
779 -> 781 ;
782 [label="Fractime-week <= 99.038\nmse = 8951.832\nsamples = 0.7%\nvalue = 21508.206"] ;
781 -> 782 ;
783 [label="Fractime-week <= 98.787\nmse = 5727.535\nsamples = 0.4%\nvalue = 21455.101"] ;
782 -> 783 ;
784 [label="Fractime-week <= 98.62\nmse = 6179.43\nsamples = 0.3%\nvalue = 21427.453"] ;
783 -> 784 ;
785 [label="mse = 8720.189\nsamples = 0.1%\nvalue = 21403.071"] ;
784 -> 785 ;
786 [label="mse = 2449.727\nsamples = 0.1%\nvalue = 21451.835"] ;
784 -> 786 ;
787 [label="mse = 237.332\nsamples = 0.1%\nvalue = 21510.397"] ;
783 -> 787 ;
788 [label="Fractime-week <= 99.276\nmse = 3212.706\nsamples = 0.3%\nvalue = 21587.864"] ;
782 -> 788 ;
789 [label="mse = 655.386\nsamples = 0.1%\nvalue = 21562.041"] ;
788 -> 789 ;
790 [label="mse = 4436.435\nsamples = 0.1%\nvalue = 21613.686"] ;
788 -> 790 ;
791 [label="mse = 2319.116\nsamples = 0.1%\nvalue = 21632.136"] ;
781 -> 791 ;
792 [label="Fractime-week <= 101.151\nmse = 29110858.408\nsamples = 2.5%\nvalue = 28061.801"] ;
758 -> 792 ;
793 [label="Fractime-week <= 100.018\nmse = 553459.433\nsamples = 0.7%\nvalue = 22038.062"] ;
792 -> 793 ;
794 [label="mse = 618.011\nsamples = 0.1%\nvalue = 21655.433"] ;
793 -> 794 ;
795 [label="Fractime-week <= 100.863\nmse = 645918.229\nsamples = 0.6%\nvalue = 22133.719"] ;
793 -> 795 ;
796 [label="Fractime-week <= 100.566\nmse = 227013.262\nsamples = 0.4%\nvalue = 21874.289"] ;
795 -> 796 ;
797 [label="Fractime-week <= 100.275\nmse = 17285.775\nsamples = 0.3%\nvalue = 21663.311"] ;
796 -> 797 ;
798 [label="mse = 5335.28\nsamples = 0.1%\nvalue = 21660.685"] ;
797 -> 798 ;
799 [label="mse = 29222.478\nsamples = 0.1%\nvalue = 21665.937"] ;
797 -> 799 ;
800 [label="mse = 379397.592\nsamples = 0.1%\nvalue = 22296.245"] ;
796 -> 800 ;
801 [label="mse = 1094985.022\nsamples = 0.1%\nvalue = 22912.01"] ;
795 -> 801 ;
802 [label="Fractime-week <= 101.542\nmse = 19591292.921\nsamples = 1.8%\nvalue = 30571.692"] ;
792 -> 802 ;
803 [label="Fractime-week <= 101.49\nmse = 696237.996\nsamples = 0.3%\nvalue = 25105.43"] ;
802 -> 803 ;
804 [label="mse = 317001.091\nsamples = 0.1%\nvalue = 24374.29"] ;
803 -> 804 ;
805 [label="mse = 6342.797\nsamples = 0.1%\nvalue = 25836.571"] ;
803 -> 805 ;
806 [label="Fractime-week <= 101.821\nmse = 16199100.767\nsamples = 1.5%\nvalue = 31664.944"] ;
802 -> 806 ;
807 [label="mse = 149262.871\nsamples = 0.1%\nvalue = 26977.132"] ;
806 -> 807 ;
808 [label="Fractime-week <= 103.165\nmse = 15269381.236\nsamples = 1.3%\nvalue = 32185.812"] ;
806 -> 808 ;
809 [label="Fractime-week <= 102.829\nmse = 6082490.442\nsamples = 0.7%\nvalue = 29470.76"] ;
808 -> 809 ;
810 [label="Fractime-week <= 102.415\nmse = 3981510.767\nsamples = 0.6%\nvalue = 28728.744"] ;
809 -> 810 ;
811 [label="Fractime-week <= 102.14\nmse = 1388706.727\nsamples = 0.3%\nvalue = 28164.221"] ;
810 -> 811 ;
812 [label="mse = 512188.451\nsamples = 0.1%\nvalue = 28140.317"] ;
811 -> 812 ;
813 [label="mse = 2264082.259\nsamples = 0.1%\nvalue = 28188.124"] ;
811 -> 813 ;
814 [label="Fractime-week <= 102.631\nmse = 5936940.961\nsamples = 0.3%\nvalue = 29293.268"] ;
810 -> 814 ;
815 [label="mse = 5261060.167\nsamples = 0.1%\nvalue = 28235.931"] ;
814 -> 815 ;
816 [label="mse = 4376898.15\nsamples = 0.1%\nvalue = 30350.605"] ;
814 -> 816 ;
817 [label="mse = 3474677.064\nsamples = 0.1%\nvalue = 32438.82"] ;
809 -> 817 ;
818 [label="Fractime-week <= 103.43\nmse = 6020621.49\nsamples = 0.6%\nvalue = 35579.628"] ;
808 -> 818 ;
819 [label="mse = 3827869.547\nsamples = 0.1%\nvalue = 33457.774"] ;
818 -> 819 ;
820 [label="Fractime-week <= 103.809\nmse = 4750533.353\nsamples = 0.4%\nvalue = 36286.912"] ;
818 -> 820 ;
821 [label="Fractime-week <= 103.675\nmse = 4099486.974\nsamples = 0.3%\nvalue = 35377.661"] ;
820 -> 821 ;
822 [label="mse = 4162648.655\nsamples = 0.1%\nvalue = 34468.045"] ;
821 -> 822 ;
823 [label="mse = 2381522.869\nsamples = 0.1%\nvalue = 36287.277"] ;
821 -> 823 ;
824 [label="mse = 1092202.061\nsamples = 0.1%\nvalue = 38105.414"] ;
820 -> 824 ;
825 [label="Fractime-week <= 105.225\nmse = 2612422.128\nsamples = 2.2%\nvalue = 42558.524"] ;
1 -> 825 ;
826 [label="Fractime-week <= 104.413\nmse = 2008085.123\nsamples = 0.6%\nvalue = 40532.337"] ;
825 -> 826 ;
827 [label="mse = 1219280.981\nsamples = 0.1%\nvalue = 39183.699"] ;
826 -> 827 ;
828 [label="Fractime-week <= 104.77\nmse = 1462653.502\nsamples = 0.4%\nvalue = 40981.883"] ;
826 -> 828 ;
829 [label="Fractime-week <= 104.617\nmse = 1360106.552\nsamples = 0.3%\nvalue = 40620.033"] ;
828 -> 829 ;
830 [label="mse = 1321511.557\nsamples = 0.1%\nvalue = 40248.218"] ;
829 -> 830 ;
831 [label="mse = 1122208.316\nsamples = 0.1%\nvalue = 40991.848"] ;
829 -> 831 ;
832 [label="mse = 882135.094\nsamples = 0.1%\nvalue = 41705.583"] ;
828 -> 832 ;
833 [label="Fractime-week <= 107.207\nmse = 796428.504\nsamples = 1.6%\nvalue = 43295.32"] ;
825 -> 833 ;
834 [label="Fractime-week <= 106.775\nmse = 976097.482\nsamples = 1.2%\nvalue = 43462.17"] ;
833 -> 834 ;
835 [label="Fractime-week <= 106.75\nmse = 1060157.029\nsamples = 1.0%\nvalue = 43527.54"] ;
834 -> 835 ;
836 [label="Fractime-week <= 106.032\nmse = 1184741.879\nsamples = 0.9%\nvalue = 43464.052"] ;
835 -> 836 ;
837 [label="Fractime-week <= 105.269\nmse = 476138.683\nsamples = 0.6%\nvalue = 42935.26"] ;
836 -> 837 ;
838 [label="mse = 484714.016\nsamples = 0.1%\nvalue = 42203.783"] ;
837 -> 838 ;
839 [label="Fractime-week <= 105.985\nmse = 235476.475\nsamples = 0.4%\nvalue = 43179.086"] ;
837 -> 839 ;
840 [label="Fractime-week <= 105.749\nmse = 173502.026\nsamples = 0.3%\nvalue = 42935.799"] ;
839 -> 840 ;
841 [label="mse = 205397.171\nsamples = 0.1%\nvalue = 42701.983"] ;
840 -> 841 ;
842 [label="mse = 32267.601\nsamples = 0.1%\nvalue = 43169.614"] ;
840 -> 842 ;
843 [label="mse = 4294.081\nsamples = 0.1%\nvalue = 43665.66"] ;
839 -> 843 ;
844 [label="Fractime-week <= 106.475\nmse = 924222.34\nsamples = 0.3%\nvalue = 44521.636"] ;
836 -> 844 ;
845 [label="mse = 368070.515\nsamples = 0.1%\nvalue = 44236.311"] ;
844 -> 845 ;
846 [label="mse = 1317552.9\nsamples = 0.1%\nvalue = 44806.962"] ;
844 -> 846 ;
847 [label="mse = 143360.5\nsamples = 0.1%\nvalue = 43908.464"] ;
835 -> 847 ;
848 [label="mse = 148379.706\nsamples = 0.1%\nvalue = 43004.58"] ;
834 -> 848 ;
849 [label="Fractime-week <= 107.719\nmse = 45108.47\nsamples = 0.4%\nvalue = 42850.386"] ;
833 -> 849 ;
850 [label="Fractime-week <= 107.355\nmse = 64312.113\nsamples = 0.3%\nvalue = 42864.19"] ;
849 -> 850 ;
851 [label="mse = 85034.859\nsamples = 0.1%\nvalue = 42910.986"] ;
850 -> 851 ;
852 [label="mse = 39209.497\nsamples = 0.1%\nvalue = 42817.393"] ;
850 -> 852 ;
853 [label="mse = 5557.988\nsamples = 0.1%\nvalue = 42822.78"] ;
849 -> 853 ;
854 [label="Fractime-week <= 117.364\nmse = 31055943.129\nsamples = 35.7%\nvalue = 21949.935"] ;
0 -> 854 [labeldistance=2.5, labelangle=-45, headlabel="False"] ;
855 [label="Fractime-week <= 110.342\nmse = 66087711.304\nsamples = 5.7%\nvalue = 31838.905"] ;
854 -> 855 ;
856 [label="Fractime-week <= 110.189\nmse = 1531162.065\nsamples = 1.5%\nvalue = 41374.218"] ;
855 -> 856 ;
857 [label="Fractime-week <= 109.826\nmse = 1355675.259\nsamples = 1.3%\nvalue = 41559.589"] ;
856 -> 857 ;
858 [label="Fractime-week <= 108.263\nmse = 1115752.038\nsamples = 1.2%\nvalue = 41771.419"] ;
857 -> 858 ;
859 [label="Fractime-week <= 108.004\nmse = 298453.145\nsamples = 0.3%\nvalue = 42790.173"] ;
858 -> 859 ;
860 [label="mse = 137307.119\nsamples = 0.1%\nvalue = 42804.734"] ;
859 -> 860 ;
861 [label="mse = 459175.114\nsamples = 0.1%\nvalue = 42775.612"] ;
859 -> 861 ;
862 [label="Fractime-week <= 109.45\nmse = 926914.34\nsamples = 0.9%\nvalue = 41431.835"] ;
858 -> 862 ;
863 [label="Fractime-week <= 108.852\nmse = 777414.421\nsamples = 0.6%\nvalue = 41871.335"] ;
862 -> 863 ;
864 [label="Fractime-week <= 108.669\nmse = 867055.732\nsamples = 0.3%\nvalue = 42401.114"] ;
863 -> 864 ;
865 [label="mse = 1068606.57\nsamples = 0.1%\nvalue = 42697.455"] ;
864 -> 865 ;
866 [label="mse = 489869.618\nsamples = 0.1%\nvalue = 42104.774"] ;
864 -> 866 ;
867 [label="Fractime-week <= 109.214\nmse = 126441.166\nsamples = 0.3%\nvalue = 41341.556"] ;
863 -> 867 ;
868 [label="mse = 132038.015\nsamples = 0.1%\nvalue = 41514.802"] ;
867 -> 868 ;
869 [label="mse = 60815.823\nsamples = 0.1%\nvalue = 41168.31"] ;
867 -> 869 ;
870 [label="Fractime-week <= 109.645\nmse = 66951.532\nsamples = 0.3%\nvalue = 40552.834"] ;
862 -> 870 ;
871 [label="mse = 29002.117\nsamples = 0.1%\nvalue = 40781.364"] ;
870 -> 871 ;
872 [label="mse = 449.281\nsamples = 0.1%\nvalue = 40324.305"] ;
870 -> 872 ;
873 [label="mse = 44264.805\nsamples = 0.1%\nvalue = 39864.945"] ;
857 -> 873 ;
874 [label="mse = 17947.727\nsamples = 0.1%\nvalue = 39705.885"] ;
856 -> 874 ;
875 [label="Fractime-week <= 112.93\nmse = 45074191.134\nsamples = 4.2%\nvalue = 28433.437"] ;
855 -> 875 ;
876 [label="Fractime-week <= 111.274\nmse = 8977631.899\nsamples = 1.5%\nvalue = 36720.512"] ;
875 -> 876 ;
877 [label="Fractime-week <= 110.669\nmse = 1321681.364\nsamples = 0.6%\nvalue = 39236.773"] ;
876 -> 877 ;
878 [label="mse = 228799.86\nsamples = 0.1%\nvalue = 39546.826"] ;
877 -> 878 ;
879 [label="Fractime-week <= 110.989\nmse = 1643249.694\nsamples = 0.4%\nvalue = 39133.423"] ;
877 -> 879 ;
880 [label="mse = 825032.719\nsamples = 0.1%\nvalue = 39394.795"] ;
879 -> 880 ;
881 [label="Fractime-week <= 111.148\nmse = 2001121.448\nsamples = 0.3%\nvalue = 39002.736"] ;
879 -> 881 ;
882 [label="mse = 1791036.053\nsamples = 0.1%\nvalue = 39242.765"] ;
881 -> 882 ;
883 [label="mse = 2095979.422\nsamples = 0.1%\nvalue = 38762.708"] ;
881 -> 883 ;
884 [label="Fractime-week <= 112.07\nmse = 7046520.853\nsamples = 0.9%\nvalue = 35043.005"] ;
876 -> 884 ;
885 [label="Fractime-week <= 111.92\nmse = 2793979.08\nsamples = 0.4%\nvalue = 37099.659"] ;
884 -> 885 ;
886 [label="Fractime-week <= 111.536\nmse = 2448625.092\nsamples = 0.3%\nvalue = 37697.759"] ;
885 -> 886 ;
887 [label="mse = 2424883.071\nsamples = 0.1%\nvalue = 38282.651"] ;
886 -> 887 ;
888 [label="mse = 1788170.282\nsamples = 0.1%\nvalue = 37112.867"] ;
886 -> 888 ;
889 [label="mse = 1338347.627\nsamples = 0.1%\nvalue = 35903.46"] ;
885 -> 889 ;
890 [label="Fractime-week <= 112.723\nmse = 2839408.086\nsamples = 0.4%\nvalue = 32986.35"] ;
884 -> 890 ;
891 [label="Fractime-week <= 112.398\nmse = 1083622.371\nsamples = 0.3%\nvalue = 34015.161"] ;
890 -> 891 ;
892 [label="mse = 871091.277\nsamples = 0.1%\nvalue = 34644.594"] ;
891 -> 892 ;
893 [label="mse = 503781.49\nsamples = 0.1%\nvalue = 33385.728"] ;
891 -> 893 ;
894 [label="mse = 277.061\nsamples = 0.1%\nvalue = 30928.73"] ;
890 -> 894 ;
895 [label="Fractime-week <= 114.065\nmse = 5778530.935\nsamples = 2.7%\nvalue = 23829.506"] ;
875 -> 895 ;
896 [label="Fractime-week <= 113.138\nmse = 2566140.438\nsamples = 0.7%\nvalue = 26681.505"] ;
895 -> 896 ;
897 [label="mse = 542104.498\nsamples = 0.1%\nvalue = 28531.525"] ;
896 -> 897 ;
898 [label="Fractime-week <= 113.507\nmse = 2002595.167\nsamples = 0.6%\nvalue = 26219.0"] ;
896 -> 898 ;
899 [label="Fractime-week <= 113.454\nmse = 1549399.689\nsamples = 0.3%\nvalue = 26973.395"] ;
898 -> 899 ;
900 [label="mse = 989300.571\nsamples = 0.1%\nvalue = 27492.772"] ;
899 -> 900 ;
901 [label="mse = 1569994.809\nsamples = 0.1%\nvalue = 26454.018"] ;
899 -> 901 ;
902 [label="Fractime-week <= 113.753\nmse = 1317566.329\nsamples = 0.3%\nvalue = 25464.605"] ;
898 -> 902 ;
903 [label="mse = 1326071.754\nsamples = 0.1%\nvalue = 25796.671"] ;
902 -> 903 ;
904 [label="mse = 1088524.566\nsamples = 0.1%\nvalue = 25132.538"] ;
902 -> 904 ;
905 [label="Fractime-week <= 115.956\nmse = 2682403.59\nsamples = 1.9%\nvalue = 22732.583"] ;
895 -> 905 ;
906 [label="Fractime-week <= 114.673\nmse = 2826126.242\nsamples = 1.0%\nvalue = 22800.688"] ;
905 -> 906 ;
907 [label="Fractime-week <= 114.345\nmse = 1189406.524\nsamples = 0.3%\nvalue = 24461.734"] ;
906 -> 907 ;
908 [label="mse = 1122275.721\nsamples = 0.1%\nvalue = 24685.335"] ;
907 -> 908 ;
909 [label="mse = 1156542.167\nsamples = 0.1%\nvalue = 24238.132"] ;
907 -> 909 ;
910 [label="Fractime-week <= 115.379\nmse = 1935733.817\nsamples = 0.7%\nvalue = 22136.27"] ;
906 -> 910 ;
911 [label="Fractime-week <= 114.83\nmse = 1408766.686\nsamples = 0.4%\nvalue = 22625.557"] ;
910 -> 911 ;
912 [label="mse = 792322.261\nsamples = 0.1%\nvalue = 23867.529"] ;
911 -> 912 ;
913 [label="Fractime-week <= 115.081\nmse = 560117.43\nsamples = 0.3%\nvalue = 22004.571"] ;
911 -> 913 ;
914 [label="mse = 214604.379\nsamples = 0.1%\nvalue = 22328.849"] ;
913 -> 914 ;
915 [label="mse = 695318.189\nsamples = 0.1%\nvalue = 21680.293"] ;
913 -> 915 ;
916 [label="Fractime-week <= 115.682\nmse = 1828429.313\nsamples = 0.3%\nvalue = 21402.34"] ;
910 -> 916 ;
917 [label="mse = 1450725.605\nsamples = 0.1%\nvalue = 21031.737"] ;
916 -> 917 ;
918 [label="mse = 1931439.415\nsamples = 0.1%\nvalue = 21772.944"] ;
916 -> 918 ;
919 [label="Fractime-week <= 116.386\nmse = 2503002.412\nsamples = 0.9%\nvalue = 22653.126"] ;
905 -> 919 ;
920 [label="Fractime-week <= 116.23\nmse = 2480826.627\nsamples = 0.3%\nvalue = 22514.15"] ;
919 -> 920 ;
921 [label="mse = 2480826.627\nsamples = 0.1%\nvalue = 22514.15"] ;
920 -> 921 ;
922 [label="mse = 2480826.627\nsamples = 0.1%\nvalue = 22514.15"] ;
920 -> 922 ;
923 [label="Fractime-week <= 116.777\nmse = 2499604.51\nsamples = 0.6%\nvalue = 22722.615"] ;
919 -> 923 ;
924 [label="Fractime-week <= 116.536\nmse = 2489410.802\nsamples = 0.3%\nvalue = 22606.801"] ;
923 -> 924 ;
925 [label="mse = 2480826.627\nsamples = 0.1%\nvalue = 22514.15"] ;
924 -> 925 ;
926 [label="mse = 2480826.627\nsamples = 0.1%\nvalue = 22699.452"] ;
924 -> 926 ;
927 [label="Fractime-week <= 117.11\nmse = 2482972.67\nsamples = 0.3%\nvalue = 22838.428"] ;
923 -> 927 ;
928 [label="mse = 2480826.627\nsamples = 0.1%\nvalue = 22884.754"] ;
927 -> 928 ;
929 [label="mse = 2480826.627\nsamples = 0.1%\nvalue = 22792.103"] ;
927 -> 929 ;
930 [label="Fractime-week <= 165.23\nmse = 2608623.629\nsamples = 30.1%\nvalue = 20089.634"] ;
854 -> 930 ;
931 [label="Fractime-week <= 123.797\nmse = 2671598.808\nsamples = 28.4%\nvalue = 20093.102"] ;
930 -> 931 ;
932 [label="Fractime-week <= 123.696\nmse = 2474705.957\nsamples = 3.9%\nvalue = 20889.197"] ;
931 -> 932 ;
933 [label="Fractime-week <= 119.857\nmse = 2505013.399\nsamples = 3.7%\nvalue = 20909.438"] ;
932 -> 933 ;
934 [label="Fractime-week <= 117.932\nmse = 2815523.617\nsamples = 1.5%\nvalue = 21763.679"] ;
933 -> 934 ;
935 [label="Fractime-week <= 117.569\nmse = 2709916.802\nsamples = 0.3%\nvalue = 22722.615"] ;
934 -> 935 ;
936 [label="mse = 2480826.627\nsamples = 0.1%\nvalue = 22699.452"] ;
935 -> 936 ;
937 [label="mse = 2937933.955\nsamples = 0.1%\nvalue = 22745.777"] ;
935 -> 937 ;
938 [label="Fractime-week <= 118.176\nmse = 2554563.35\nsamples = 1.2%\nvalue = 21523.945"] ;
934 -> 938 ;
939 [label="mse = 3433670.071\nsamples = 0.1%\nvalue = 22792.103"] ;
938 -> 939 ;
940 [label="Fractime-week <= 119.695\nmse = 2166409.312\nsamples = 1.0%\nvalue = 21342.779"] ;
938 -> 940 ;
941 [label="Fractime-week <= 118.976\nmse = 2204881.162\nsamples = 0.9%\nvalue = 21471.828"] ;
940 -> 941 ;
942 [label="Fractime-week <= 118.716\nmse = 2323450.082\nsamples = 0.4%\nvalue = 21958.245"] ;
941 -> 942 ;
943 [label="Fractime-week <= 118.251\nmse = 2323628.919\nsamples = 0.3%\nvalue = 22166.71"] ;
942 -> 943 ;
944 [label="mse = 2628903.648\nsamples = 0.1%\nvalue = 22375.174"] ;
943 -> 944 ;
945 [label="mse = 1931439.415\nsamples = 0.1%\nvalue = 21958.245"] ;
943 -> 945 ;
946 [label="mse = 2062348.087\nsamples = 0.1%\nvalue = 21541.317"] ;
942 -> 946 ;
947 [label="Fractime-week <= 119.064\nmse = 1613109.586\nsamples = 0.4%\nvalue = 20985.412"] ;
941 -> 947 ;
948 [label="mse = 2197548.846\nsamples = 0.1%\nvalue = 21124.388"] ;
947 -> 948 ;
949 [label="Fractime-week <= 119.455\nmse = 1306404.16\nsamples = 0.3%\nvalue = 20915.924"] ;
947 -> 949 ;
950 [label="mse = 1564465.926\nsamples = 0.1%\nvalue = 20985.412"] ;
949 -> 950 ;
951 [label="mse = 1038685.197\nsamples = 0.1%\nvalue = 20846.435"] ;
949 -> 951 ;
952 [label="mse = 1236121.226\nsamples = 0.1%\nvalue = 20568.483"] ;
940 -> 952 ;
953 [label="Fractime-week <= 120.139\nmse = 1487198.812\nsamples = 2.2%\nvalue = 20339.944"] ;
933 -> 953 ;
954 [label="mse = 1450725.605\nsamples = 0.1%\nvalue = 20290.53"] ;
953 -> 954 ;
955 [label="Fractime-week <= 122.549\nmse = 1489617.174\nsamples = 2.1%\nvalue = 20343.474"] ;
953 -> 955 ;
956 [label="Fractime-week <= 121.172\nmse = 1598781.167\nsamples = 1.5%\nvalue = 20341.488"] ;
955 -> 956 ;
957 [label="Fractime-week <= 120.707\nmse = 1605106.631\nsamples = 0.6%\nvalue = 20417.925"] ;
956 -> 957 ;
958 [label="Fractime-week <= 120.401\nmse = 1809114.919\nsamples = 0.3%\nvalue = 20429.507"] ;
957 -> 958 ;
959 [label="mse = 1682498.335\nsamples = 0.1%\nvalue = 20383.181"] ;
958 -> 959 ;
960 [label="mse = 1931439.415\nsamples = 0.1%\nvalue = 20475.832"] ;
958 -> 960 ;
961 [label="Fractime-week <= 120.934\nmse = 1400830.087\nsamples = 0.3%\nvalue = 20406.344"] ;
957 -> 961 ;
962 [label="mse = 1564465.926\nsamples = 0.1%\nvalue = 20429.507"] ;
961 -> 962 ;
963 [label="mse = 1236121.226\nsamples = 0.1%\nvalue = 20383.181"] ;
961 -> 963 ;
964 [label="Fractime-week <= 122.156\nmse = 1588072.408\nsamples = 0.9%\nvalue = 20290.53"] ;
956 -> 964 ;
965 [label="Fractime-week <= 121.69\nmse = 1622274.981\nsamples = 0.6%\nvalue = 20255.786"] ;
964 -> 965 ;
966 [label="Fractime-week <= 121.347\nmse = 1942169.634\nsamples = 0.3%\nvalue = 20244.205"] ;
965 -> 966 ;
967 [label="mse = 1682498.335\nsamples = 0.1%\nvalue = 20290.53"] ;
966 -> 967 ;
968 [label="mse = 2197548.846\nsamples = 0.1%\nvalue = 20197.88"] ;
966 -> 968 ;
969 [label="Fractime-week <= 121.877\nmse = 1302112.072\nsamples = 0.3%\nvalue = 20267.368"] ;
965 -> 969 ;
970 [label="mse = 1564465.926\nsamples = 0.1%\nvalue = 20244.205"] ;
969 -> 970 ;
971 [label="mse = 1038685.197\nsamples = 0.1%\nvalue = 20290.53"] ;
969 -> 971 ;
972 [label="Fractime-week <= 122.254\nmse = 1512424.364\nsamples = 0.3%\nvalue = 20360.019"] ;
964 -> 972 ;
973 [label="mse = 1341277.372\nsamples = 0.1%\nvalue = 20336.856"] ;
972 -> 973 ;
974 [label="mse = 1682498.335\nsamples = 0.1%\nvalue = 20383.181"] ;
972 -> 974 ;
975 [label="Fractime-week <= 123.409\nmse = 1216672.704\nsamples = 0.6%\nvalue = 20348.437"] ;
955 -> 975 ;
976 [label="Fractime-week <= 123.171\nmse = 1274511.565\nsamples = 0.4%\nvalue = 20367.739"] ;
975 -> 976 ;
977 [label="Fractime-week <= 122.992\nmse = 1343423.415\nsamples = 0.3%\nvalue = 20383.181"] ;
976 -> 977 ;
978 [label="mse = 1450725.605\nsamples = 0.1%\nvalue = 20383.181"] ;
977 -> 978 ;
979 [label="mse = 1236121.226\nsamples = 0.1%\nvalue = 20383.181"] ;
977 -> 979 ;
980 [label="mse = 1135257.167\nsamples = 0.1%\nvalue = 20336.856"] ;
976 -> 980 ;
981 [label="mse = 1038685.197\nsamples = 0.1%\nvalue = 20290.53"] ;
975 -> 981 ;
982 [label="mse = 1450725.605\nsamples = 0.1%\nvalue = 20383.181"] ;
932 -> 982 ;
983 [label="Fractime-week <= 135.0\nmse = 2587021.308\nsamples = 24.6%\nvalue = 19967.656"] ;
931 -> 983 ;
984 [label="Fractime-week <= 131.114\nmse = 1376207.116\nsamples = 6.5%\nvalue = 20257.892"] ;
983 -> 984 ;
985 [label="Fractime-week <= 129.233\nmse = 941383.418\nsamples = 4.3%\nvalue = 20113.216"] ;
984 -> 985 ;
986 [label="Fractime-week <= 128.108\nmse = 1115222.559\nsamples = 3.1%\nvalue = 20122.877"] ;
985 -> 986 ;
987 [label="Fractime-week <= 125.265\nmse = 1257069.286\nsamples = 2.5%\nvalue = 20195.155"] ;
986 -> 987 ;
988 [label="Fractime-week <= 124.752\nmse = 1442141.43\nsamples = 0.9%\nvalue = 20475.832"] ;
987 -> 988 ;
989 [label="Fractime-week <= 124.166\nmse = 1550382.514\nsamples = 0.6%\nvalue = 20464.251"] ;
988 -> 989 ;
990 [label="mse = 1931439.415\nsamples = 0.1%\nvalue = 20475.832"] ;
989 -> 990 ;
991 [label="Fractime-week <= 124.699\nmse = 1423303.934\nsamples = 0.4%\nvalue = 20460.39"] ;
989 -> 991 ;
992 [label="Fractime-week <= 124.323\nmse = 1566611.97\nsamples = 0.3%\nvalue = 20475.832"] ;
991 -> 992 ;
993 [label="mse = 1682498.335\nsamples = 0.1%\nvalue = 20475.832"] ;
992 -> 993 ;
994 [label="mse = 1450725.605\nsamples = 0.1%\nvalue = 20475.832"] ;
992 -> 994 ;
995 [label="mse = 1135257.167\nsamples = 0.1%\nvalue = 20429.507"] ;
991 -> 995 ;
996 [label="Fractime-week <= 125.163\nmse = 1224854.496\nsamples = 0.3%\nvalue = 20498.995"] ;
988 -> 996 ;
997 [label="mse = 858417.518\nsamples = 0.1%\nvalue = 20383.181"] ;
996 -> 997 ;
998 [label="mse = 1564465.926\nsamples = 0.1%\nvalue = 20614.808"] ;
996 -> 998 ;
999 [label="Fractime-week <= 126.062\nmse = 1089711.378\nsamples = 1.6%\nvalue = 20042.058"] ;
987 -> 999 ;
1000 [label="Fractime-week <= 125.68\nmse = 2076655.045\nsamples = 0.4%\nvalue = 20800.11"] ;
999 -> 1000 ;
1001 [label="mse = 2480826.627\nsamples = 0.1%\nvalue = 20846.435"] ;
1000 -> 1001 ;
1002 [label="Fractime-week <= 125.778\nmse = 1872959.722\nsamples = 0.3%\nvalue = 20776.947"] ;
1000 -> 1002 ;
1003 [label="mse = 2062348.087\nsamples = 0.1%\nvalue = 20800.11"] ;
1002 -> 1003 ;
1004 [label="mse = 1682498.335\nsamples = 0.1%\nvalue = 20753.785"] ;
1002 -> 1004 ;
1005 [label="Fractime-week <= 127.628\nmse = 423307.138\nsamples = 1.2%\nvalue = 19757.788"] ;
999 -> 1005 ;
1006 [label="Fractime-week <= 126.955\nmse = 441846.572\nsamples = 0.9%\nvalue = 19626.533"] ;
1005 -> 1006 ;
1007 [label="Fractime-week <= 126.332\nmse = 851740.937\nsamples = 0.4%\nvalue = 19703.742"] ;
1006 -> 1007 ;
1008 [label="mse = 1236121.226\nsamples = 0.1%\nvalue = 20105.229"] ;
1007 -> 1008 ;
1009 [label="Fractime-week <= 126.56\nmse = 538656.992\nsamples = 0.3%\nvalue = 19502.998"] ;
1007 -> 1009 ;
1010 [label="mse = 858417.518\nsamples = 0.1%\nvalue = 19456.673"] ;
1009 -> 1010 ;
1011 [label="mse = 214604.379\nsamples = 0.1%\nvalue = 19549.324"] ;
1009 -> 1011 ;
1012 [label="Fractime-week <= 127.121\nmse = 20029.742\nsamples = 0.4%\nvalue = 19549.324"] ;
1006 -> 1012 ;
1013 [label="mse = 0.0\nsamples = 0.1%\nvalue = 19641.975"] ;
1012 -> 1013 ;
1014 [label="Fractime-week <= 127.422\nmse = 23606.482\nsamples = 0.3%\nvalue = 19502.998"] ;
1012 -> 1014 ;
1015 [label="mse = 8584.175\nsamples = 0.1%\nvalue = 19549.324"] ;
1014 -> 1015 ;
1016 [label="mse = 34336.701\nsamples = 0.1%\nvalue = 19456.673"] ;
1014 -> 1016 ;
1017 [label="Fractime-week <= 127.975\nmse = 160953.285\nsamples = 0.3%\nvalue = 20151.554"] ;
1005 -> 1017 ;
1018 [label="mse = 77257.577\nsamples = 0.1%\nvalue = 19919.927"] ;
1017 -> 1018 ;
1019 [label="mse = 137346.803\nsamples = 0.1%\nvalue = 20383.181"] ;
1017 -> 1019 ;
1020 [label="Fractime-week <= 128.321\nmse = 395810.952\nsamples = 0.6%\nvalue = 19815.695"] ;
986 -> 1020 ;
1021 [label="mse = 173829.547\nsamples = 0.1%\nvalue = 20058.903"] ;
1020 -> 1021 ;
1022 [label="Fractime-week <= 128.738\nmse = 443515.718\nsamples = 0.4%\nvalue = 19734.626"] ;
1020 -> 1022 ;
1023 [label="mse = 214604.379\nsamples = 0.1%\nvalue = 19734.626"] ;
1022 -> 1023 ;
1024 [label="Fractime-week <= 128.792\nmse = 557971.387\nsamples = 0.3%\nvalue = 19734.626"] ;
1022 -> 1024 ;
1025 [label="mse = 420624.584\nsamples = 0.1%\nvalue = 19734.626"] ;
1024 -> 1025 ;
1026 [label="mse = 695318.189\nsamples = 0.1%\nvalue = 19734.626"] ;
1024 -> 1026 ;
1027 [label="Fractime-week <= 129.319\nmse = 484167.599\nsamples = 1.2%\nvalue = 20087.857"] ;
985 -> 1027 ;
1028 [label="mse = 420624.584\nsamples = 0.1%\nvalue = 19919.927"] ;
1027 -> 1028 ;
1029 [label="Fractime-week <= 130.337\nmse = 488641.033\nsamples = 1.0%\nvalue = 20111.847"] ;
1027 -> 1029 ;
1030 [label="Fractime-week <= 129.944\nmse = 579297.697\nsamples = 0.6%\nvalue = 20047.322"] ;
1029 -> 1030 ;
1031 [label="Fractime-week <= 129.652\nmse = 384141.839\nsamples = 0.3%\nvalue = 20058.903"] ;
1030 -> 1031 ;
1032 [label="mse = 214604.379\nsamples = 0.1%\nvalue = 20105.229"] ;
1031 -> 1032 ;
1033 [label="mse = 549387.211\nsamples = 0.1%\nvalue = 20012.578"] ;
1031 -> 1033 ;
1034 [label="Fractime-week <= 130.242\nmse = 774185.299\nsamples = 0.3%\nvalue = 20035.741"] ;
1030 -> 1034 ;
1035 [label="mse = 1038685.197\nsamples = 0.1%\nvalue = 19919.927"] ;
1034 -> 1035 ;
1036 [label="mse = 482859.854\nsamples = 0.1%\nvalue = 20151.554"] ;
1034 -> 1036 ;
1037 [label="Fractime-week <= 130.902\nmse = 354812.574\nsamples = 0.4%\nvalue = 20197.88"] ;
1029 -> 1037 ;
1038 [label="Fractime-week <= 130.539\nmse = 231772.73\nsamples = 0.3%\nvalue = 20290.53"] ;
1037 -> 1038 ;
1039 [label="mse = 137346.803\nsamples = 0.1%\nvalue = 20383.181"] ;
1038 -> 1039 ;
1040 [label="mse = 309030.306\nsamples = 0.1%\nvalue = 20197.88"] ;
1038 -> 1040 ;
1041 [label="mse = 549387.211\nsamples = 0.1%\nvalue = 20012.578"] ;
1037 -> 1041 ;
1042 [label="Fractime-week <= 133.53\nmse = 2098163.173\nsamples = 2.2%\nvalue = 20537.599"] ;
984 -> 1042 ;
1043 [label="Fractime-week <= 132.924\nmse = 1954960.055\nsamples = 1.5%\nvalue = 20420.242"] ;
1042 -> 1043 ;
1044 [label="Fractime-week <= 131.412\nmse = 1827728.564\nsamples = 1.0%\nvalue = 20356.71"] ;
1043 -> 1044 ;
1045 [label="mse = 858417.518\nsamples = 0.1%\nvalue = 20197.88"] ;
1044 -> 1045 ;
1046 [label="Fractime-week <= 131.643\nmse = 1984375.162\nsamples = 0.9%\nvalue = 20383.181"] ;
1044 -> 1046 ;
1047 [label="mse = 1236121.226\nsamples = 0.1%\nvalue = 20383.181"] ;
1046 -> 1047 ;
1048 [label="Fractime-week <= 132.224\nmse = 2134025.949\nsamples = 0.7%\nvalue = 20383.181"] ;
1046 -> 1048 ;
1049 [label="Fractime-week <= 131.894\nmse = 2147653.327\nsamples = 0.3%\nvalue = 20591.646"] ;
1048 -> 1049 ;
1050 [label="mse = 1804822.831\nsamples = 0.1%\nvalue = 20522.158"] ;
1049 -> 1050 ;
1051 [label="mse = 2480826.627\nsamples = 0.1%\nvalue = 20661.134"] ;
1049 -> 1051 ;
1052 [label="Fractime-week <= 132.62\nmse = 2076655.045\nsamples = 0.4%\nvalue = 20244.205"] ;
1048 -> 1052 ;
1053 [label="Fractime-week <= 132.487\nmse = 2083808.525\nsamples = 0.3%\nvalue = 20244.205"] ;
1052 -> 1053 ;
1054 [label="mse = 2197548.846\nsamples = 0.1%\nvalue = 20383.181"] ;
1053 -> 1054 ;
1055 [label="mse = 1931439.415\nsamples = 0.1%\nvalue = 20105.229"] ;
1053 -> 1055 ;
1056 [label="mse = 2062348.087\nsamples = 0.1%\nvalue = 20244.205"] ;
1052 -> 1056 ;
1057 [label="Fractime-week <= 133.086\nmse = 2220439.98\nsamples = 0.4%\nvalue = 20568.483"] ;
1043 -> 1057 ;
1058 [label="mse = 2197548.846\nsamples = 0.1%\nvalue = 20383.181"] ;
1057 -> 1058 ;
1059 [label="Fractime-week <= 133.275\nmse = 2206133.021\nsamples = 0.3%\nvalue = 20661.134"] ;
1057 -> 1059 ;
1060 [label="mse = 2197548.846\nsamples = 0.1%\nvalue = 20568.483"] ;
1059 -> 1060 ;
1061 [label="mse = 2197548.846\nsamples = 0.1%\nvalue = 20753.785"] ;
1059 -> 1061 ;
1062 [label="Fractime-week <= 134.395\nmse = 2301932.416\nsamples = 0.7%\nvalue = 20772.315"] ;
1042 -> 1062 ;
1063 [label="Fractime-week <= 133.769\nmse = 2351348.651\nsamples = 0.4%\nvalue = 20614.808"] ;
1062 -> 1063 ;
1064 [label="mse = 2337041.692\nsamples = 0.1%\nvalue = 20614.808"] ;
1063 -> 1064 ;
